svm_type c_svc
kernel_type rbf
gamma 0.15000000596046448
nr_class 3
total_sv 22812
rho -0.7764459173350095 -0.632108289806985 0.3668015181741064
label 1 2 3
nr_sv 14517 2767 5528
SV
0.15715132474481916 0.2569826696489942 1:2885.0 2:909.0 3:3231.0 4:2.4000000953674316 5:15.0 6:13.0 7:-70.0 
0.20407323214237266 0.33506518931017193 2:316.0 3:934.0 4:2.4000000953674316 5:9.0 6:14.0 7:-65.0 
0.07688572891469292 0.12572693935186524 2:174.0 3:365.0 4:2.5999999046325684 5:15.0 6:15.0 7:-65.0 
0.2236107196942157 0.3682854226475454 1:2881.0 2:622.0 3:387.0 4:2.5999999046325684 5:12.0 6:15.0 7:-56.0 
0.14363471431646793 0.23659553862569874 1:300.0 2:493.0 3:1880.0 4:2.5999999046325684 5:7.0 6:13.0 7:-67.0 
0.17853583407280277 0.2934680456854725 1:3482.0 2:984.0 3:1835.0 4:2.5 5:10.0 6:14.0 7:-59.0 
0.12431599770762175 0.203709016096087 1:1287.0 2:750.0 3:6445.0 4:2.4000000953674316 5:11.0 6:13.0 7:-86.0 
0.14099939760976948 0.2313208064102068 1:38.0 2:648.0 3:2738.0 4:2.299999952316284 5:7.0 6:11.0 7:-64.0 
0.10716342601994495 0.1751849554891562 1:3421.0 2:811.0 3:1105.0 4:2.5 5:15.0 6:14.0 7:-59.0 
0.13842956984029767 0.22671586572814278 1:192.0 2:134.0 3:282.0 4:2.5 5:10.0 6:14.0 7:-66.0 
0.2212787081083378 0.36450742232497807 1:1287.0 2:669.0 3:5606.0 4:2.4000000953674316 5:7.0 6:11.0 7:-86.0 
0.07432733605994851 0.12034794964073253 1:3527.0 2:339.0 3:104.0 4:2.5999999046325684 5:15.0 6:15.0 7:-63.0 
0.22301676679695911 0.3672170351518629 1:3285.0 2:1150.0 3:2909.0 4:2.4000000953674316 5:11.0 6:12.0 7:-64.0 
0.12988591935270544 0.2133306749347146 1:3363.0 2:733.0 3:834.0 4:2.5 5:11.0 6:13.0 7:-56.0 
0.17024657548899763 0.28062674587004166 1:1026.0 2:135.0 3:486.0 4:2.5 5:15.0 6:12.0 7:-85.0 
0.04080836456575716 0.06804896266669616 1:2735.0 2:695.0 3:914.0 4:2.5999999046325684 5:12.0 6:14.0 7:-64.0 
0.17515019914274366 0.2884771314185209 1:2731.0 2:466.0 3:712.0 4:2.5999999046325684 5:10.0 6:13.0 7:-57.0 
0.11428781619943562 0.18711845516773487 1:30.0 2:118.0 3:476.0 4:2.5999999046325684 5:10.0 6:14.0 7:-66.0 
0.20927698327967337 0.34479857146461806 1:317.0 2:271.0 3:1768.0 4:2.5 5:7.0 6:14.0 7:-78.0 
0.11448142940292248 0.18922659764693303 1:3149.0 2:976.0 3:2268.0 4:2.5 5:15.0 6:14.0 7:-64.0 
0.1696286419929851 0.2797058179161878 1:2153.0 2:542.0 3:1100.0 4:2.5 5:12.0 6:14.0 7:-72.0 
0.034574852093716246 0.056001457939972014 1:3573.0 2:390.0 3:176.0 4:2.5999999046325684 5:11.0 6:15.0 7:-66.0 
0.2230168114187096 0.36752336691476395 1:3369.0 2:762.0 3:932.0 4:2.5 5:13.0 6:13.0 7:-59.0 
0.09729898894273209 0.16021915705375125 1:2747.0 2:540.0 3:219.0 4:2.5999999046325684 5:11.0 6:15.0 7:-59.0 
0.12275230492025895 0.20071773637148552 1:30.0 2:17.0 3:49.0 4:2.5999999046325684 5:15.0 6:15.0 7:-68.0 
0.12061550611242353 0.198459410956863 1:220.0 2:1029.0 3:2427.0 4:2.5999999046325684 5:9.0 6:12.0 7:-70.0 
0.12716879685602722 0.2095654793366623 1:1869.0 2:479.0 3:787.0 4:2.5 5:10.0 6:14.0 7:-72.0 
0.20443992241304937 0.33725082306418497 1:324.0 2:347.0 3:1058.0 4:2.299999952316284 5:11.0 6:13.0 7:-64.0 
0.1358962096860944 0.22423773335791042 1:30.0 2:145.0 3:542.0 4:2.5999999046325684 5:15.0 6:13.0 7:-67.0 
0.2145078624322268 0.3532491514566074 1:127.0 2:343.0 3:1132.0 4:2.5999999046325684 5:15.0 6:14.0 7:-67.0 
0.10880834309975006 0.18361677791637843 1:216.0 2:207.0 3:487.0 4:2.299999952316284 5:15.0 6:14.0 7:-64.0 
0.038049208710361784 0.06125171561228884 1:158.0 2:337.0 3:1203.0 4:2.5999999046325684 5:11.0 6:15.0 7:-68.0 
0.2252451333629728 1.0 1:158.0 2:119.0 3:507.0 4:2.5999999046325684 5:11.0 6:13.0 7:-78.0 
0.21723988378643336 0.35701046036148487 1:2785.0 2:798.0 3:2621.0 4:2.4000000953674316 5:15.0 6:12.0 7:-70.0 
0.1356642459925907 0.22298335261285906 1:1287.0 2:303.0 3:2145.0 4:2.5 5:12.0 6:12.0 7:-90.0 
0.029655086062345726 0.008646558381532908 1:1400.0 2:226.0 3:55.0 4:2.299999952316284 5:15.0 6:15.0 7:-64.0 
0.22356049254321914 0.36772968628340585 1:1287.0 2:439.0 3:3697.0 4:2.4000000953674316 5:15.0 6:14.0 7:-82.0 
0.22360234431867315 1.0 1:148.0 2:608.0 3:1119.0 4:2.5999999046325684 5:11.0 6:14.0 7:-74.0 
0.2095082733551339 0.3446499223289383 1:537.0 2:487.0 3:1808.0 4:2.4000000953674316 5:15.0 6:13.0 7:-64.0 
0.10500181630609 0.17410802732632433 1:2238.0 2:340.0 3:432.0 4:2.5999999046325684 5:15.0 6:15.0 7:-56.0 
0.2042845275311586 0.3364510752826754 1:30.0 2:47.0 3:182.0 4:2.5999999046325684 5:15.0 6:15.0 7:-68.0 
0.2235091173391573 0.36804478352619463 1:2080.0 2:510.0 3:160.0 4:2.5999999046325684 5:15.0 6:15.0 7:-57.0 
0.09323196663427506 0.0 2:25.0 3:25.0 4:2.5999999046325684 5:15.0 6:14.0 7:-65.0 
0.17762664952209634 0.29192844766767656 1:1287.0 2:304.0 3:2146.0 4:2.5 5:15.0 6:12.0 7:-91.0 
0.22100339009473208 0.36435490799604714 1:222.0 2:1149.0 3:3150.0 4:2.5999999046325684 5:10.0 6:10.0 7:-80.0 
0.12421150968088139 0.20459744581462236 1:3424.0 2:876.0 3:1342.0 4:2.5 5:11.0 6:14.0 7:-59.0 
0.0991278117929071 0.16354311055924226 1:2785.0 2:776.0 3:2503.0 4:2.4000000953674316 5:15.0 6:12.0 7:-72.0 
0.19275883431518787 0.3174919930558441 1:2880.0 2:851.0 3:2940.0 4:2.4000000953674316 5:7.0 6:8.0 7:-70.0 
0.16266043596890867 0.26791619963192476 1:2735.0 2:695.0 3:918.0 4:2.5999999046325684 5:11.0 6:14.0 7:-64.0 
0.06073879036720883 0.10067868685009075 1:1508.0 2:353.0 3:464.0 4:2.5 5:15.0 6:14.0 7:-72.0 
0.15944618123193116 0.2617442978887602 1:216.0 2:264.0 3:639.0 4:2.4000000953674316 5:14.0 6:14.0 7:-64.0 
0.1870572397509977 0.3080858505889844 1:192.0 2:135.0 3:285.0 4:2.5 5:10.0 6:15.0 7:-66.0 
0.21762071271546812 0.35774451612295405 1:3285.0 2:1159.0 3:2938.0 4:2.4000000953674316 5:11.0 6:11.0 7:-64.0 
0.11527540423717164 0.1903613375880564 1:2747.0 2:708.0 3:970.0 4:2.5999999046325684 5:15.0 6:15.0 7:-65.0 
0.18564796613636575 0.305839047353291 1:2733.0 2:485.0 3:338.0 4:2.5999999046325684 5:15.0 6:14.0 7:-71.0 
0.12747058549470855 0.20961055430501407 1:2735.0 2:699.0 3:923.0 4:2.5 5:11.0 6:15.0 7:-66.0 
0.13526731886465176 0.22234040417598347 1:1026.0 2:159.0 3:646.0 4:2.5 5:14.0 6:15.0 7:-88.0 
0.12272341501735556 0.2026260318444677 2:256.0 3:661.0 4:2.5 5:15.0 6:15.0 7:-64.0 
0.10550769673551694 0.17321899848142308 2:110.0 3:211.0 4:2.5 5:15.0 6:15.0 7:-66.0 
0.2156361446930039 0.3550629724421736 1:3469.0 2:944.0 3:1607.0 4:2.5 5:15.0 6:14.0 7:-59.0 
0.22335411402700456 0.36785718068316126 1:1036.0 2:291.0 3:1936.0 4:2.5 5:9.0 6:13.0 7:-87.0 
0.08538449686090481 0.1396495882079659 2:43.0 3:129.0 4:2.5 5:15.0 6:14.0 7:-81.0 
0.20098331464399155 0.33062904980313984 1:2153.0 2:543.0 3:1107.0 4:2.5 5:11.0 6:14.0 7:-73.0 
0.22366911086022656 0.3682897637128353 1:1675.0 2:213.0 3:24.0 4:2.5999999046325684 5:15.0 6:15.0 7:-62.0 
0.13727441768829776 0.22454230735914787 1:1026.0 2:234.0 3:1426.0 4:2.5 5:15.0 6:13.0 7:-91.0 
0.17797708253843086 0.2924392058374309 1:158.0 2:193.0 3:739.0 4:2.5999999046325684 5:11.0 6:14.0 7:-79.0 
0.1880227752416908 0.30934877020738394 1:222.0 2:1195.0 3:3420.0 4:2.5999999046325684 5:7.0 6:14.0 7:-77.0 
0.08679793670004121 0.144045778821367 1:1056.0 2:370.0 3:109.0 4:2.5999999046325684 5:15.0 6:15.0 7:-56.0 
0.12207848818476989 0.20182060743132155 1:158.0 2:244.0 3:1096.0 4:2.5999999046325684 5:15.0 6:15.0 7:-78.0 
0.0 1.0 1:60.0 2:95.0 3:61.0 4:2.5999999046325684 5:15.0 6:15.0 7:-54.0 
0.22360775478354872 0.36816630259973393 1:1358.0 2:79.0 3:52.0 4:2.5 5:15.0 6:15.0 7:-64.0 
0.10016781451177548 0.16328487859773072 1:318.0 2:348.0 3:2012.0 4:2.5 5:10.0 6:13.0 7:-80.0 
0.08331280382507632 0.14279983683797232 1:1400.0 2:86.0 3:52.0 4:2.4000000953674316 5:15.0 6:15.0 7:-64.0 
0.22081559886941848 0.36375127243531286 1:147.0 2:377.0 3:1292.0 4:2.5999999046325684 5:9.0 6:14.0 7:-68.0 
0.22318425919898216 0.36769673242625933 1:2702.0 2:706.0 3:2074.0 4:2.5 5:10.0 6:13.0 7:-72.0 
0.08716479941060393 0.1422695573813557 1:172.0 2:66.0 3:122.0 4:2.5 5:15.0 6:15.0 7:-66.0 
0.1281900284057861 0.2110753859286851 1:216.0 2:237.0 3:568.0 4:2.5 5:15.0 6:15.0 7:-64.0 
0.14608132756063694 0.2413232247824399 1:158.0 2:242.0 3:1056.0 4:2.5999999046325684 5:10.0 6:14.0 7:-78.0 
0.08439666539230467 0.13914229237140185 1:158.0 2:148.0 3:674.0 4:2.5999999046325684 5:11.0 6:14.0 7:-78.0 
0.1177759473459895 0.19408387203541824 1:3455.0 2:917.0 3:1489.0 4:2.5 5:12.0 6:13.0 7:-64.0 
0.13632503692384204 0.22458352738231496 1:3163.0 2:1010.0 3:2438.0 4:2.5 5:10.0 6:12.0 7:-72.0 
0.10874484976064949 0.17943338072841164 1:2880.0 2:880.0 3:3076.0 4:2.4000000953674316 5:15.0 6:12.0 7:-72.0 
0.15627713453611614 0.25805371316970593 1:1287.0 2:453.0 3:3776.0 4:2.4000000953674316 5:10.0 6:13.0 7:-82.0 
0.10496050225808226 0.17322608921942229 1:537.0 2:485.0 3:1807.0 4:2.4000000953674316 5:11.0 6:12.0 7:-64.0 
0.13197291463442085 0.2164529665342673 1:1869.0 2:476.0 3:775.0 4:2.5 5:15.0 6:14.0 7:-72.0 
0.17161366607121464 0.2826170968698502 1:1026.0 2:245.0 3:1556.0 4:2.5 5:11.0 6:12.0 7:-87.0 
0.12995026735166332 0.21436607023710216 1:172.0 2:81.0 3:154.0 4:2.5 5:11.0 6:15.0 7:-66.0 
0.22354545197261394 0.3682696126112069 1:543.0 2:175.0 3:250.0 4:2.5 5:15.0 6:15.0 7:-71.0 
0.22367310434771992 0.36785466723703075 1:2343.0 2:248.0 3:38.0 4:2.5999999046325684 5:15.0 6:15.0 7:-62.0 
0.2236222781779319 0.3678452925350044 1:2980.0 2:971.0 3:3539.0 4:2.4000000953674316 5:9.0 6:10.0 7:-82.0 
0.21955987943600433 0.3617136505638011 1:3162.0 2:994.0 3:2387.0 4:2.5 5:10.0 6:14.0 7:-60.0 
0.22030856298523815 0.36286707270801954 1:643.0 2:38.0 3:123.0 4:2.5999999046325684 5:15.0 6:13.0 7:-82.0 
0.08141311765548796 0.13191583052157768 1:158.0 2:241.0 3:1023.0 4:2.5999999046325684 5:15.0 6:15.0 7:-77.0 
0.15114062638020076 0.24624675280492447 1:185.0 2:917.0 3:1933.0 4:2.5999999046325684 5:14.0 6:15.0 7:-63.0 
0.2234768859591168 0.36826500562437864 2:38.0 3:224.0 4:2.5999999046325684 5:5.0 6:10.0 7:-89.0 
0.1635456812976076 0.2680377424917241 1:1287.0 2:763.0 3:6552.0 4:2.4000000953674316 5:15.0 6:13.0 7:-87.0 
0.018713160447075633 0.03197342853792504 1:2917.0 2:930.0 3:3328.0 4:2.4000000953674316 5:15.0 6:11.0 7:-72.0 
0.13874536914622015 0.22910379147170187 1:1026.0 2:151.0 3:584.0 4:2.5 5:12.0 6:12.0 7:-87.0 
0.18603195423302077 0.3052969319720234 1:2772.0 2:557.0 3:232.0 4:2.5999999046325684 5:7.0 6:15.0 7:-56.0 
0.17834458337256892 0.2935366633777004 1:587.0 2:747.0 3:2854.0 4:2.5999999046325684 5:13.0 6:13.0 7:-66.0 
0.20283446736878913 0.3337339812084581 1:2735.0 2:658.0 3:746.0 4:2.5999999046325684 5:15.0 6:14.0 7:-67.0 
0.21164101612627728 0.34866461874455257 1:2941.0 2:946.0 3:3415.0 4:2.4000000953674316 5:15.0 6:13.0 7:-72.0 
0.1392781122641207 0.22792118244077944 1:1404.0 2:329.0 3:64.0 4:2.299999952316284 5:12.0 6:14.0 7:-66.0 
0.03471902347460051 0.057065317234133744 1:3424.0 2:873.0 3:1333.0 4:2.5 5:15.0 6:14.0 7:-57.0 
0.19385425544835583 0.3186399670254187 1:167.0 2:791.0 3:1598.0 4:2.5999999046325684 5:11.0 6:15.0 7:-70.0 
0.22359226352017786 0.3678676289354352 1:2913.0 2:728.0 3:1115.0 4:2.5999999046325684 5:12.0 6:15.0 7:-64.0 
0.16169139612978425 0.2685274105219876 1:1887.0 2:512.0 3:922.0 4:2.5 5:15.0 6:14.0 7:-72.0 
0.22232630097683628 0.3661633842078934 1:2785.0 2:773.0 3:2479.0 4:2.4000000953674316 5:10.0 6:13.0 7:-70.0 
0.0 1.0 1:940.0 2:244.0 3:110.0 4:2.5999999046325684 5:15.0 6:15.0 7:-64.0 
0.029995582624668726 0.04918048633215326 1:145.0 2:45.0 3:157.0 4:2.5999999046325684 5:15.0 6:13.0 7:-72.0 
0.04097953399235359 0.06922731968427241 1:1287.0 2:413.0 3:3443.0 4:2.4000000953674316 5:11.0 6:14.0 7:-82.0 
0.1541439386251517 0.2519992043232647 2:3.0 3:7.0 4:2.5 5:13.0 6:12.0 7:-84.0 
0.04206069396022228 0.06908562930876874 1:2530.0 2:390.0 3:563.0 4:2.5999999046325684 5:10.0 6:14.0 7:-56.0 
0.11201853589688772 0.18379238918416732 1:96.0 2:209.0 3:654.0 4:2.5999999046325684 5:15.0 6:15.0 7:-68.0 
0.21167111018679835 0.34777093021434563 1:2692.0 2:698.0 3:2029.0 4:2.5 5:10.0 6:13.0 7:-72.0 
0.14791663987544074 0.24265215328323053 1:317.0 2:265.0 3:1735.0 4:2.5 5:10.0 6:14.0 7:-78.0 
0.14401844004592854 0.2378692749677629 1:1287.0 2:427.0 3:3586.0 4:2.4000000953674316 5:15.0 6:15.0 7:-82.0 
0.05877538987953134 0.1018281788833572 1:158.0 2:252.0 3:1102.0 4:2.5999999046325684 5:15.0 6:15.0 7:-61.0 
0.1241949491097956 0.20238191491362303 1:318.0 2:346.0 3:2007.0 4:2.5 5:15.0 6:14.0 7:-80.0 
0.10983273386112315 0.1798472374483843 1:1864.0 2:287.0 3:297.0 4:2.5999999046325684 5:15.0 6:15.0 7:-55.0 
0.2112723722836724 0.347469618567232 1:30.0 2:85.0 3:333.0 4:2.5999999046325684 5:7.0 6:14.0 7:-68.0 
0.17531260394078196 0.2878156279927814 1:427.0 2:547.0 3:2123.0 4:2.5999999046325684 5:15.0 6:13.0 7:-66.0 
0.22209534206785114 0.36593170561145155 1:511.0 2:608.0 3:2325.0 4:2.5999999046325684 5:5.0 6:13.0 7:-68.0 
0.07712480310541005 0.12418642646864503 1:172.0 2:71.0 3:128.0 4:2.5 5:15.0 6:15.0 7:-65.0 
0.15514406223296928 0.2549308396926703 1:2917.0 2:934.0 3:3347.0 4:2.4000000953674316 5:15.0 6:10.0 7:-70.0 
0.14761105652184775 0.24333280342084807 1:1287.0 2:374.0 3:3121.0 4:2.4000000953674316 5:7.0 6:11.0 7:-84.0 
0.13772230011733527 0.22724918443862374 1:3573.0 2:356.0 3:115.0 4:2.5 5:9.0 6:15.0 7:-66.0 
0.2234788512933807 0.36825052116821144 1:222.0 2:1038.0 3:2493.0 4:2.5999999046325684 5:15.0 6:14.0 7:-73.0 
0.10998162380102115 0.17979522717827243 1:69.0 2:668.0 3:2836.0 4:2.4000000953674316 5:15.0 6:13.0 7:-64.0 
0.02780860358986942 0.04423879663825442 1:216.0 2:228.0 3:537.0 4:2.5 5:15.0 6:14.0 7:-64.0 
0.16456369703245455 0.27074707141505266 1:158.0 2:243.0 3:1089.0 4:2.5999999046325684 5:9.0 6:14.0 7:-78.0 
0.09484947972686283 0.1574106707393751 1:222.0 2:1051.0 3:2548.0 4:2.5999999046325684 5:10.0 6:13.0 7:-70.0 
0.19093985998581403 0.314028923845744 1:31.0 2:484.0 3:1841.0 4:2.4000000953674316 5:15.0 6:14.0 7:-64.0 
0.22389908455511554 0.3678474469993664 1:1326.0 2:77.0 3:52.0 4:2.5 5:15.0 6:15.0 7:-64.0 
0.16339050340091693 0.2684966484690693 1:99.0 2:312.0 3:951.0 4:2.5999999046325684 5:10.0 6:15.0 7:-68.0 
0.14652760451666788 0.24004041280363633 1:2941.0 2:950.0 3:3438.0 4:2.4000000953674316 5:15.0 6:13.0 7:-72.0 
0.20572637785987552 0.33849613603639217 1:158.0 2:332.0 3:1179.0 4:2.5999999046325684 5:7.0 6:15.0 7:-68.0 
0.15112702590351973 0.24903537878520596 1:2733.0 2:453.0 3:246.0 4:2.5999999046325684 5:9.0 6:14.0 7:-71.0 
0.13069508625741033 0.2150589079994653 1:158.0 2:199.0 3:775.0 4:2.5999999046325684 5:10.0 6:14.0 7:-78.0 
0.15479950401139436 0.2549323948480129 1:1287.0 2:361.0 3:3017.0 4:2.4000000953674316 5:15.0 6:13.0 7:-86.0 
0.22358297395456272 0.3679889393917352 1:1813.0 2:499.0 3:149.0 4:2.5999999046325684 5:15.0 6:15.0 7:-59.0 
0.18263917097150367 0.3004737620605525 1:222.0 2:1126.0 3:3016.0 4:2.5999999046325684 5:7.0 6:11.0 7:-78.0 
0.21422805201129919 0.3526580816677462 1:1287.0 2:526.0 3:4264.0 4:2.4000000953674316 5:10.0 6:12.0 7:-82.0 
0.220515941222186 0.36359222854316814 1:69.0 2:690.0 3:2914.0 4:2.4000000953674316 5:15.0 6:13.0 7:-64.0 
0.21825968538830975 0.35952794780679037 1:82.0 2:183.0 3:62.0 4:2.5999999046325684 5:15.0 6:15.0 7:-59.0 
0.13437757191082456 0.22123905340582 1:185.0 2:932.0 3:1960.0 4:2.5999999046325684 5:15.0 6:14.0 7:-61.0 
0.20837291731348334 0.3436697080001006 1:266.0 2:1314.0 3:4102.0 4:2.5 5:10.0 6:13.0 7:-78.0 
0.20475174420809944 0.3367720388211492 1:1287.0 2:356.0 3:2913.0 4:2.4000000953674316 5:5.0 6:12.0 7:-91.0 
0.19483926789982697 0.31970101070917434 1:1026.0 2:258.0 3:1633.0 4:2.5 5:15.0 6:14.0 7:-91.0 
0.22345728628586048 0.3681705301677853 1:3348.0 2:303.0 3:45.0 4:2.5 5:15.0 6:15.0 7:-62.0 
0.15916751980255747 0.2618118834525828 1:2733.0 2:522.0 3:428.0 4:2.5999999046325684 5:15.0 6:14.0 7:-66.0 
0.2234609490788806 0.3680103857595471 1:433.0 2:416.0 3:1444.0 4:2.4000000953674316 5:15.0 6:13.0 7:-65.0 
0.22361862338296318 0.36818782438203956 1:1153.0 2:267.0 3:309.0 4:2.5 5:15.0 6:14.0 7:-71.0 
0.21406912494658129 0.35254269466132143 1:3455.0 2:890.0 3:1376.0 4:2.5 5:15.0 6:13.0 7:-59.0 
0.22294458149641683 0.3672939397751249 1:616.0 2:805.0 3:3227.0 4:2.5999999046325684 5:15.0 6:12.0 7:-68.0 
0.15004214009466943 0.24749360242432045 1:3241.0 2:1127.0 3:2839.0 4:2.5 5:11.0 6:14.0 7:-64.0 
0.08423850119731258 0.13916512441796478 1:1026.0 2:173.0 3:789.0 4:2.5 5:14.0 6:11.0 7:-86.0 
0.04055284838582228 0.06762156347982214 1:222.0 2:1116.0 3:2951.0 4:2.5999999046325684 5:15.0 6:11.0 7:-77.0 
0.17521305687456978 0.287936217354183 1:3343.0 2:694.0 3:655.0 4:2.5999999046325684 5:10.0 6:13.0 7:-56.0 
0.13839683777529982 0.22593631111746165 2:131.0 3:248.0 4:2.5999999046325684 5:11.0 6:14.0 7:-66.0 
0.15955347373204168 0.26165375241598055 1:300.0 2:497.0 3:1894.0 4:2.5999999046325684 5:14.0 6:14.0 7:-57.0 
0.1390808077206573 0.22831317518579192 1:2747.0 2:715.0 3:1017.0 4:2.5 5:15.0 6:15.0 7:-65.0 
0.13668884071668455 0.22440808642840665 1:254.0 2:1297.0 3:3969.0 4:2.5999999046325684 5:10.0 6:13.0 7:-77.0 
0.10401213618637406 0.17064375247232597 1:2592.0 2:629.0 3:1530.0 4:2.5 5:15.0 6:14.0 7:-73.0 
0.20278150849770105 0.3342660067050712 1:317.0 2:260.0 3:1716.0 4:2.5999999046325684 5:10.0 6:13.0 7:-80.0 
0.18888179956847248 0.31110586919492755 1:318.0 2:287.0 3:1827.0 4:2.5 5:11.0 6:14.0 7:-80.0 
0.17719542173445169 0.2913659442006668 1:3343.0 2:696.0 3:664.0 4:2.5 5:10.0 6:13.0 7:-58.0 
0.054577238357632916 0.09075967075741675 1:1404.0 2:330.0 3:66.0 4:2.200000047683716 5:12.0 6:14.0 7:-66.0 
0.14669676819561883 0.24098368034058132 1:167.0 2:862.0 3:1757.0 4:2.5999999046325684 5:15.0 6:13.0 7:-69.0 
0.11854482028144052 0.19574167558474506 1:2607.0 2:637.0 3:1562.0 4:2.5 5:9.0 6:14.0 7:-72.0 
0.17972887439307628 0.29627268013450014 1:147.0 2:352.0 3:1179.0 4:2.5999999046325684 5:10.0 6:15.0 7:-67.0 
0.22336975683648563 0.3678655582465401 1:1948.0 2:514.0 3:954.0 4:2.5 5:12.0 6:15.0 7:-73.0 
0.09081270274375401 0.14724818294381634 1:1887.0 2:505.0 3:905.0 4:2.5 5:15.0 6:15.0 7:-71.0 
0.1655462613823091 0.27194193438655917 1:3149.0 2:969.0 3:2253.0 4:2.5 5:15.0 6:13.0 7:-64.0 
0.2049613642886045 0.33755814369986054 1:1287.0 2:436.0 3:3662.0 4:2.4000000953674316 5:11.0 6:15.0 7:-82.0 
0.11984418111986912 0.19645467589398177 1:1815.0 2:273.0 3:264.0 4:2.5999999046325684 5:15.0 6:14.0 7:-56.0 
0.15202820258678726 0.2509977466688628 1:1344.0 2:304.0 3:347.0 4:2.5 5:10.0 6:15.0 7:-68.0 
0.1229339895836364 0.20117549832195117 1:2702.0 2:703.0 3:2053.0 4:2.5 5:15.0 6:12.0 7:-71.0 
0.1875523191993999 0.3085922203186237 1:3421.0 2:822.0 3:1133.0 4:2.5 5:12.0 6:14.0 7:-56.0 
0.11053903966504887 0.18417008710525976 1:216.0 2:189.0 3:423.0 4:2.299999952316284 5:15.0 6:14.0 7:-64.0 
0.20002504225879775 0.32976204010139865 2:93.0 3:163.0 4:2.5 5:7.0 6:14.0 7:-66.0 
0.21923015861082368 0.36115579626384625 2:28.0 3:71.0 4:2.5 5:10.0 6:12.0 7:-90.0 
0.06583675777396386 0.10725149419439242 1:3104.0 2:918.0 3:1996.0 4:2.5 5:15.0 6:13.0 7:-63.0 
0.1176726206018604 0.194026530169442 1:1026.0 2:68.0 3:245.0 4:2.5999999046325684 5:15.0 6:13.0 7:-82.0 
0.2194709946430543 0.3610590810949206 1:220.0 2:1013.0 3:2372.0 4:2.5999999046325684 5:10.0 6:11.0 7:-70.0 
0.12189914183400707 0.20146871119072413 1:1287.0 2:388.0 3:3279.0 4:2.4000000953674316 5:15.0 6:13.0 7:-82.0 
0.1177836647975897 0.1932836705522106 1:166.0 2:712.0 3:1430.0 4:2.5999999046325684 5:15.0 6:15.0 7:-71.0 
0.2231291651885554 0.36745387558976417 1:3077.0 2:815.0 3:1508.0 4:2.5 5:9.0 6:13.0 7:-65.0 
0.14776228464202507 0.24153833459070634 2:162.0 3:304.0 4:2.5999999046325684 5:15.0 6:14.0 7:-64.0 
0.10333352396704988 0.1701318935552473 1:158.0 2:199.0 3:778.0 4:2.5999999046325684 5:12.0 6:15.0 7:-78.0 
0.13036426145360785 0.2154159325368657 1:220.0 2:1002.0 3:2315.0 4:2.5999999046325684 5:15.0 6:11.0 7:-69.0 
0.11835092597440108 0.19258565878167078 1:30.0 2:134.0 3:513.0 4:2.5999999046325684 5:15.0 6:14.0 7:-66.0 
0.22138512645436792 0.3645383756907598 1:322.0 2:328.0 3:965.0 4:2.299999952316284 5:10.0 6:13.0 7:-64.0 
0.22359876813877827 0.36834413503645247 1:586.0 2:701.0 3:2682.0 4:2.5999999046325684 5:15.0 6:13.0 7:-68.0 
0.15538143676878782 0.25639698492199414 1:2747.0 2:719.0 3:1037.0 4:2.5999999046325684 5:15.0 6:14.0 7:-65.0 
0.13088847676971427 0.2148844808938551 1:216.0 2:286.0 3:713.0 4:2.4000000953674316 5:10.0 6:14.0 7:-64.0 
0.22340143603806595 0.3679117326452838 1:12.0 2:383.0 3:1316.0 4:2.5 5:15.0 6:12.0 7:-64.0 
0.15575430221408912 0.25682665828774526 1:30.0 2:75.0 3:261.0 4:2.5999999046325684 5:7.0 6:15.0 7:-70.0 
0.11963580781748705 0.1981112636083264 1:607.0 2:781.0 3:3065.0 4:2.5999999046325684 5:15.0 6:12.0 7:-68.0 
0.1280259526051558 0.21047160438745494 1:2735.0 2:647.0 3:725.0 4:2.5999999046325684 5:15.0 6:13.0 7:-64.0 
0.09938015658970209 0.16280901407343326 1:127.0 2:340.0 3:1115.0 4:2.5999999046325684 5:15.0 6:14.0 7:-67.0 
0.14992603011196717 0.24757782827135744 1:69.0 2:693.0 3:2931.0 4:2.4000000953674316 5:7.0 6:12.0 7:-64.0 
0.06273593445851428 0.10643164019210798 1:2045.0 2:311.0 3:345.0 4:2.5999999046325684 5:11.0 6:14.0 7:-56.0 
0.09317476789928858 0.1535085227291804 1:2733.0 2:507.0 3:401.0 4:2.5999999046325684 5:15.0 6:14.0 7:-66.0 
0.1270659359597906 0.20876801641944318 1:2734.0 2:548.0 3:473.0 4:2.5999999046325684 5:11.0 6:15.0 7:-66.0 
0.1651309337978097 0.2715837245952601 1:2917.0 2:936.0 3:3352.0 4:2.4000000953674316 5:15.0 6:11.0 7:-70.0 
0.11397581526649016 0.18775718034943334 1:1287.0 2:416.0 3:3519.0 4:2.4000000953674316 5:11.0 6:14.0 7:-82.0 
0.17240538859839497 0.28379304879779166 1:158.0 2:140.0 3:641.0 4:2.5999999046325684 5:11.0 6:14.0 7:-78.0 
0.20009638003014163 0.3295729487935703 1:3455.0 2:916.0 3:1474.0 4:2.5 5:15.0 6:12.0 7:-59.0 
0.20286179305133117 0.3333963130612381 1:849.0 2:225.0 3:281.0 4:2.5 5:10.0 6:15.0 7:-72.0 
0.06937611809734329 0.05018529209576561 2:27.0 3:34.0 4:2.5999999046325684 5:15.0 6:15.0 7:-66.0 
0.11952026803566224 0.19785062936124947 1:2733.0 2:469.0 3:277.0 4:2.5999999046325684 5:10.0 6:15.0 7:-71.0 
0.16336319600693727 0.2684338822575705 1:257.0 2:309.0 3:824.0 4:2.4000000953674316 5:10.0 6:14.0 7:-64.0 
0.21805877978967939 0.359776198368212 1:1287.0 2:388.0 3:3268.0 4:2.4000000953674316 5:15.0 6:14.0 7:-82.0 
0.2222646666644557 0.36590219853272815 1:1287.0 2:338.0 3:2666.0 4:2.4000000953674316 5:15.0 6:11.0 7:-91.0 
0.22338513658235704 0.3682270077026589 1:1624.0 2:424.0 3:624.0 4:2.5 5:3.0 6:15.0 7:-70.0 
0.22295756751928425 0.3665337944252824 1:1287.0 2:309.0 3:2211.0 4:2.5 5:6.0 6:12.0 7:-91.0 
0.09072130651373203 0.14975517474000763 1:1508.0 2:376.0 3:505.0 4:2.5 5:15.0 6:14.0 7:-73.0 
0.2189729820579283 0.3600846509538181 1:512.0 2:419.0 3:1495.0 4:2.4000000953674316 5:15.0 6:12.0 7:-65.0 
0.17461217244746702 0.2872004402686092 1:31.0 2:528.0 3:2080.0 4:2.5 5:15.0 6:13.0 7:-64.0 
0.21328876504345906 0.35092970827101017 1:1287.0 2:343.0 3:2768.0 4:2.4000000953674316 5:7.0 6:13.0 7:-90.0 
0.10536850188006769 0.1729415759888148 1:3398.0 2:788.0 3:1016.0 4:2.5 5:15.0 6:13.0 7:-59.0 
0.218669536023408 0.3596835747856103 1:2607.0 2:639.0 3:1565.0 4:2.5 5:15.0 6:12.0 7:-72.0 
0.12571120889079118 0.2072888923878925 1:615.0 2:787.0 3:3115.0 4:2.5999999046325684 5:15.0 6:12.0 7:-68.0 
0.12565009422566714 0.20796796735663858 1:2153.0 2:524.0 3:1018.0 4:2.5 5:10.0 6:14.0 7:-72.0 
0.223266449633225 0.3671919421899531 1:579.0 2:521.0 3:2022.0 4:2.4000000953674316 5:7.0 6:9.0 7:-65.0 
0.04851428087228873 0.08397262938736083 1:172.0 2:58.0 3:100.0 4:2.5 5:15.0 6:14.0 7:-66.0 
0.09076284949767109 0.14712724596994248 1:3162.0 2:999.0 3:2411.0 4:2.5 5:15.0 6:12.0 7:-64.0 
0.1733363645142192 0.28494514088304806 2:214.0 3:525.0 4:2.5999999046325684 5:15.0 6:14.0 7:-65.0 
0.22346399013070556 0.3678648106828022 1:3181.0 2:302.0 3:45.0 4:2.5999999046325684 5:15.0 6:14.0 7:-62.0 
0.2213193581184823 0.36461903643398114 1:3471.0 2:974.0 3:1784.0 4:2.5 5:7.0 6:13.0 7:-59.0 
0.07173106308902562 0.11853297361149072 2:107.0 3:197.0 4:2.5999999046325684 5:15.0 6:14.0 7:-66.0 
0.07038393616981559 0.11421431703451912 1:145.0 2:95.0 3:204.0 4:2.5 5:15.0 6:15.0 7:-72.0 
0.09132979802446269 0.1503138822559571 1:3073.0 2:797.0 3:1391.0 4:2.5 5:12.0 6:14.0 7:-62.0 
0.042714858288893015 0.06373327887790041 1:145.0 2:62.0 3:181.0 4:2.5999999046325684 5:15.0 6:15.0 7:-72.0 
0.21432103603729624 0.35311150461080765 1:1287.0 2:677.0 3:5731.0 4:2.4000000953674316 5:11.0 6:12.0 7:-85.0 
0.10610930188328734 0.17374020346450264 1:99.0 2:289.0 3:859.0 4:2.5999999046325684 5:10.0 6:14.0 7:-68.0 
0.0391514904327141 0.06352886848400242 1:1508.0 2:376.0 3:510.0 4:2.5 5:15.0 6:14.0 7:-73.0 
0.22319897054728527 0.3682836620549395 1:1253.0 2:70.0 3:52.0 4:2.5 5:15.0 6:15.0 7:-64.0 
0.05785357823778242 0.0937127988836273 1:158.0 2:150.0 3:681.0 4:2.5999999046325684 5:15.0 6:15.0 7:-78.0 
0.033538422405276484 0.055342837168135144 1:98.0 2:272.0 3:801.0 4:2.5999999046325684 5:11.0 6:15.0 7:-68.0 
0.1792125519454418 1.0 1:940.0 2:225.0 3:108.0 4:2.5999999046325684 5:15.0 6:15.0 7:-64.0 
0.18895585914872998 0.31045352339169585 1:216.0 2:205.0 3:474.0 4:2.5 5:15.0 6:15.0 7:-64.0 
0.1915484231565464 0.3151548037894922 1:1026.0 2:287.0 3:1908.0 4:2.5 5:11.0 6:12.0 7:-88.0 
0.1256890882759613 0.20481956729492964 1:1287.0 2:650.0 3:5392.0 4:2.4000000953674316 5:10.0 6:11.0 7:-86.0 
0.18629323671938885 0.30680820200766806 1:2550.0 2:272.0 3:44.0 4:2.5999999046325684 5:10.0 6:15.0 7:-63.0 
0.09896732359816847 0.1616901894104771 1:266.0 2:1312.0 3:4073.0 4:2.5 5:15.0 6:12.0 7:-78.0 
0.11201978356167361 0.1804760193227439 1:3073.0 2:794.0 3:1379.0 4:2.5 5:14.0 6:14.0 7:-62.0 
0.16524666112950356 0.272111218179995 1:216.0 2:238.0 3:575.0 4:2.5 5:15.0 6:14.0 7:-64.0 
0.13146423937521268 0.21610478522095247 1:2702.0 2:711.0 3:2105.0 4:2.5 5:10.0 6:12.0 7:-72.0 
0.10350367098732122 0.1710753581558698 1:3527.0 2:333.0 3:104.0 4:2.5999999046325684 5:15.0 6:15.0 7:-72.0 
0.20491687628043634 0.33745322455569376 1:283.0 2:479.0 3:1806.0 4:2.5999999046325684 5:11.0 6:10.0 7:-72.0 
0.20302229575102454 0.3338702540888963 1:12.0 2:335.0 3:1031.0 4:2.5 5:7.0 6:12.0 7:-64.0 
0.10229810804497545 0.16781118424080493 1:31.0 2:531.0 3:2092.0 4:2.5 5:14.0 6:12.0 7:-65.0 
0.1204900733352811 0.1981607133454028 1:12.0 2:438.0 3:1635.0 4:2.5 5:15.0 6:12.0 7:-63.0 
0.18009889318647665 0.2970975873402316 1:237.0 2:1263.0 3:3772.0 4:2.5999999046325684 5:15.0 6:13.0 7:-78.0 
0.1167318378175332 0.19051911717048275 1:82.0 2:207.0 3:63.0 4:2.5999999046325684 5:15.0 6:14.0 7:-54.0 
0.22334762062980934 0.3682320575613924 1:3066.0 2:993.0 3:3685.0 4:2.4000000953674316 5:15.0 6:14.0 7:-72.0 
0.22367459259477157 0.36784756322318907 1:3023.0 2:296.0 3:45.0 4:2.5 5:15.0 6:15.0 7:-62.0 
0.18244058964090165 0.2999940319165352 1:2754.0 2:755.0 3:2360.0 4:2.5 5:9.0 6:12.0 7:-73.0 
0.10935989090465144 1.0 1:940.0 2:248.0 3:110.0 4:2.5999999046325684 5:15.0 6:15.0 7:-64.0 
0.10450632616864552 0.17167232495525236 1:185.0 2:930.0 3:1956.0 4:2.5999999046325684 5:14.0 6:13.0 7:-61.0 
0.00414471116301922 0.015394420459269087 1:1400.0 2:112.0 3:53.0 4:2.299999952316284 5:15.0 6:15.0 7:-64.0 
0.22359903788414415 0.3679658229920891 1:533.0 2:466.0 3:1726.0 4:2.4000000953674316 5:10.0 6:13.0 7:-64.0 
0.11661114137428479 0.19135742236007677 1:216.0 2:241.0 3:577.0 4:2.5 5:15.0 6:15.0 7:-64.0 
0.18633804593919345 0.30668469046333163 1:2772.0 2:603.0 3:326.0 4:2.5999999046325684 5:10.0 6:15.0 7:-58.0 
0.019406595233130486 0.0315756439848342 1:2092.0 2:320.0 3:379.0 4:2.5999999046325684 5:15.0 6:14.0 7:-56.0 
0.1706642396025903 0.2812494075854084 1:2592.0 2:629.0 3:1533.0 4:2.5 5:15.0 6:14.0 7:-72.0 
0.05480263972547054 0.0 2:26.0 3:29.0 4:2.5999999046325684 5:15.0 6:15.0 7:-66.0 
0.1015598570241921 0.16672890089052136 1:1260.0 2:341.0 3:183.0 4:2.5999999046325684 5:10.0 6:15.0 7:-63.0 
0.15418680132232998 0.25415603651778473 1:2772.0 2:598.0 3:319.0 4:2.5999999046325684 5:11.0 6:15.0 7:-56.0 
0.18267732014828403 0.3002571172565498 1:1287.0 2:307.0 3:2200.0 4:2.5 5:7.0 6:12.0 7:-90.0 
0.21943823210729563 0.36113485228475756 1:3469.0 2:959.0 3:1721.0 4:2.5 5:15.0 6:13.0 7:-59.0 
0.2233776413013268 0.3681641584827713 1:615.0 2:798.0 3:3173.0 4:2.5999999046325684 5:15.0 6:12.0 7:-68.0 
0.22360097815953367 0.367841767151537 1:1287.0 2:507.0 3:4100.0 4:2.4000000953674316 5:4.0 6:14.0 7:-82.0 
0.11619367009968713 0.18987440623755655 1:150.0 2:678.0 3:1314.0 4:2.5999999046325684 5:15.0 6:15.0 7:-71.0 
0.09298665593676442 0.15304324859248297 1:1404.0 2:330.0 3:68.0 4:2.299999952316284 5:11.0 6:14.0 7:-66.0 
0.18026271795333726 0.2971423720126375 1:1726.0 2:457.0 3:698.0 4:2.5 5:11.0 6:14.0 7:-71.0 
0.15755069896439972 0.25851112115644 1:1287.0 2:433.0 3:3614.0 4:2.4000000953674316 5:15.0 6:14.0 7:-82.0 
0.22307591936006652 0.3671464964761926 1:587.0 2:753.0 3:2898.0 4:2.5999999046325684 5:5.0 6:12.0 7:-68.0 
0.22130035622141161 0.3642536317921882 1:222.0 2:1200.0 3:3450.0 4:2.5 5:7.0 6:11.0 7:-78.0 
0.2224549251243671 0.36619524426269173 1:1869.0 2:476.0 3:781.0 4:2.5 5:5.0 6:15.0 7:-72.0 
0.0392678649527263 0.05454626670325214 1:3527.0 2:339.0 3:104.0 4:2.5999999046325684 5:15.0 6:15.0 7:-64.0 
0.028792157547406737 0.04243309304696656 1:216.0 2:250.0 3:609.0 4:2.5 5:15.0 6:13.0 7:-64.0 
0.20313616568881032 0.33403564000457386 1:158.0 2:191.0 3:725.0 4:2.5999999046325684 5:11.0 6:14.0 7:-78.0 
0.17172968114788256 0.2824126524330867 1:3285.0 2:1170.0 3:2977.0 4:2.4000000953674316 5:11.0 6:13.0 7:-64.0 
0.21532716057543227 0.354188752009601 1:1287.0 2:687.0 3:5880.0 4:2.4000000953674316 5:10.0 6:12.0 7:-84.0 
0.18473673588463396 0.30343902059283956 1:172.0 2:126.0 3:254.0 4:2.5 5:11.0 6:14.0 7:-66.0 
0.1698252129440058 0.27866769691760046 1:1287.0 2:716.0 3:6128.0 4:2.4000000953674316 5:15.0 6:13.0 7:-86.0 
0.07881683820265861 0.13136304915296124 1:216.0 2:159.0 3:339.0 4:2.5 5:15.0 6:14.0 7:-64.0 
0.07643903524266488 0.12324721444184787 1:1287.0 2:355.0 3:2900.0 4:2.4000000953674316 5:15.0 6:12.0 7:-88.0 
0.15653613738044825 0.25695695315242223 1:3469.0 2:964.0 3:1751.0 4:2.5 5:10.0 6:13.0 7:-59.0 
0.05209875853263132 0.09132716739309796 1:158.0 2:130.0 3:591.0 4:2.5999999046325684 5:15.0 6:12.0 7:-79.0 
0.1281579814387484 0.2088580927829025 1:31.0 2:500.0 3:1940.0 4:2.5 5:15.0 6:13.0 7:-64.0 
0.2207001332705168 0.3631803949767712 1:1287.0 2:436.0 3:3652.0 4:2.4000000953674316 5:15.0 6:15.0 7:-82.0 
0.16858104177692101 0.2754724297322936 1:167.0 2:751.0 3:1533.0 4:2.5999999046325684 5:10.0 6:15.0 7:-70.0 
0.16270889545147751 0.2687447260412206 1:1344.0 2:298.0 3:344.0 4:2.5 5:15.0 6:15.0 7:-67.0 
0.07399418127066515 0.12125013528070425 1:1287.0 2:338.0 3:2641.0 4:2.4000000953674316 5:10.0 6:11.0 7:-91.0 
0.17984315149215857 0.29605834754964905 1:1026.0 2:190.0 3:919.0 4:2.5 5:15.0 6:13.0 7:-92.0 
0.15759023791319068 0.25895173955060297 1:82.0 2:175.0 3:62.0 4:2.5999999046325684 5:10.0 6:15.0 7:-54.0 
0.0710056621198508 0.1166688272320381 1:266.0 2:1312.0 3:4071.0 4:2.5 5:15.0 6:14.0 7:-78.0 
0.20449063760686598 0.3366394482103233 1:3301.0 2:682.0 3:598.0 4:2.5999999046325684 5:15.0 6:14.0 7:-58.0 
0.11782145532806695 0.19337154501756929 1:2772.0 2:598.0 3:316.0 4:2.5999999046325684 5:15.0 6:15.0 7:-58.0 
0.15914533758879246 0.2616267943377988 1:1026.0 2:197.0 3:1006.0 4:2.5 5:15.0 6:13.0 7:-88.0 
0.12279018373090572 0.2010094022612877 1:3297.0 2:669.0 3:542.0 4:2.5 5:15.0 6:15.0 7:-56.0 
0.1526819654252057 0.2508010290258138 1:3240.0 2:1125.0 3:2837.0 4:2.5 5:15.0 6:14.0 7:-64.0 
0.22120108571048958 0.3641670180465971 1:1287.0 2:349.0 3:2801.0 4:2.4000000953674316 5:15.0 6:13.0 7:-91.0 
0.21927517507268068 0.36119058900727635 1:31.0 2:622.0 3:2609.0 4:2.299999952316284 5:7.0 6:12.0 7:-64.0 
0.09923062363026197 0.16442344400221065 2:176.0 3:369.0 4:2.5999999046325684 5:12.0 6:14.0 7:-65.0 
0.09143316516280658 0.15079474567350398 1:1026.0 2:126.0 3:447.0 4:2.5 5:15.0 6:13.0 7:-86.0 
0.11832543108905397 0.195999755421556 1:3301.0 2:682.0 3:599.0 4:2.5 5:11.0 6:14.0 7:-58.0 
0.15325341717492208 0.24307247995426132 2:22.0 3:22.0 4:2.5999999046325684 5:11.0 6:15.0 7:-64.0 
0.15996937473742776 0.2629856059250711 1:317.0 2:274.0 3:1781.0 4:2.5 5:15.0 6:14.0 7:-80.0 
0.1269679845185783 0.2087311823972391 1:2735.0 2:654.0 3:732.0 4:2.5999999046325684 5:15.0 6:15.0 7:-66.0 
0.21444355018347522 0.3531054426928963 1:2735.0 2:597.0 3:582.0 4:2.5999999046325684 5:7.0 6:13.0 7:-80.0 
0.13963940597991858 0.23318566933062837 1:3455.0 2:924.0 3:1518.0 4:2.5 5:15.0 6:14.0 7:-59.0 
0.19394917465167744 0.31953985005379754 2:100.0 3:179.0 4:2.5999999046325684 5:7.0 6:15.0 7:-66.0 
0.15605555542502364 0.2558673618174628 1:880.0 2:245.0 3:289.0 4:2.5 5:15.0 6:13.0 7:-70.0 
0.11278835857975916 0.18555003770215686 1:2733.0 2:466.0 3:269.0 4:2.5999999046325684 5:10.0 6:14.0 7:-72.0 
0.005742411585846004 0.0071365963550909396 1:2772.0 2:562.0 3:245.0 4:2.5999999046325684 5:15.0 6:15.0 7:-59.0 
0.22211061199035215 0.3654551499609983 1:1287.0 2:637.0 3:5126.0 4:2.4000000953674316 5:15.0 6:11.0 7:-88.0 
0.09273643384678022 0.15262984712698435 1:1026.0 2:158.0 3:632.0 4:2.5 5:13.0 6:12.0 7:-86.0 
0.14509895962088865 0.23877813919364163 1:96.0 2:187.0 3:624.0 4:2.5999999046325684 5:11.0 6:15.0 7:-68.0 
0.2121440012842749 0.34981662478175335 1:185.0 2:976.0 3:2151.0 4:2.5999999046325684 5:15.0 6:13.0 7:-69.0 
0.22451020809878253 0.6782630227531227 1:158.0 2:100.0 3:353.0 4:2.5999999046325684 5:15.0 6:14.0 7:-79.0 
0.1289013329837717 0.21105970186778494 1:220.0 2:1012.0 3:2371.0 4:2.5999999046325684 5:15.0 6:11.0 7:-68.0 
0.07489212962337236 0.12232996374783467 2:54.0 3:88.0 4:2.5 5:15.0 6:15.0 7:-65.0 
0.1833942860469647 0.29989719813562876 1:216.0 2:226.0 3:535.0 4:2.299999952316284 5:10.0 6:15.0 7:-64.0 
0.22329562206649722 0.36832127398105263 1:2342.0 2:518.0 3:172.0 4:2.5999999046325684 5:15.0 6:15.0 7:-56.0 
0.11935533480600555 0.19746846443676874 1:3482.0 2:974.0 3:1791.0 4:2.5 5:15.0 6:13.0 7:-59.0 
0.15419935056906814 0.2535098357886503 1:1344.0 2:304.0 3:351.0 4:2.5 5:11.0 6:14.0 7:-67.0 
0.17174484046084118 0.28342910168463964 1:216.0 2:201.0 3:461.0 4:2.5 5:12.0 6:15.0 7:-64.0 
0.08349232699544709 0.13790159935667706 1:1056.0 2:351.0 3:109.0 4:2.5999999046325684 5:11.0 6:15.0 7:-58.0 
0.12894213233153728 0.2115303843394607 1:3297.0 2:676.0 3:557.0 4:2.5999999046325684 5:9.0 6:14.0 7:-58.0 
0.19885600607014303 0.3272869630556598 1:12.0 2:340.0 3:1047.0 4:2.5 5:10.0 6:14.0 7:-64.0 
0.1727451490509136 0.28567834820862775 1:1400.0 2:192.0 3:54.0 4:2.4000000953674316 5:9.0 6:15.0 7:-64.0 
0.07028962943664085 0.12078515247196522 1:3421.0 2:811.0 3:1103.0 4:2.5 5:15.0 6:14.0 7:-59.0 
0.22074472456330074 0.36388603289283056 1:2436.0 2:380.0 3:520.0 4:2.5999999046325684 5:10.0 6:11.0 7:-56.0 
0.15888740971922966 0.26225380083755373 1:147.0 2:386.0 3:1347.0 4:2.5999999046325684 5:15.0 6:11.0 7:-67.0 
0.10392578575727457 0.16968955906621144 1:1624.0 2:401.0 3:574.0 4:2.5 5:15.0 6:14.0 7:-74.0 
0.20580879608030228 0.33887645121158333 1:216.0 2:232.0 3:559.0 4:2.5 5:10.0 6:14.0 7:-64.0 
0.21382390660114997 0.3518937287868132 1:2484.0 2:520.0 3:178.0 4:2.5999999046325684 5:10.0 6:15.0 7:-59.0 
0.0647651842485831 0.10506196617927266 1:418.0 2:393.0 3:1358.0 4:2.4000000953674316 5:15.0 6:15.0 7:-54.0 
0.202306028458898 0.33348291051354145 1:3340.0 2:1249.0 3:3190.0 4:2.4000000953674316 5:7.0 6:13.0 7:-64.0 
0.18583530099785384 0.30568469362923884 1:31.0 2:622.0 3:2621.0 4:2.4000000953674316 5:15.0 6:13.0 7:-64.0 
0.06877064320464629 0.11746723726138993 1:1404.0 2:337.0 3:81.0 4:2.299999952316284 5:11.0 6:15.0 7:-66.0 
0.15150413895150194 0.25018498415330803 1:222.0 2:1119.0 3:2973.0 4:2.5999999046325684 5:7.0 6:12.0 7:-77.0 
0.12293122805260273 0.20141986541641246 1:1287.0 2:438.0 3:3684.0 4:2.4000000953674316 5:15.0 6:14.0 7:-82.0 
0.13938283132730964 0.23148526860837484 1:2785.0 2:782.0 3:2545.0 4:2.4000000953674316 5:15.0 6:12.0 7:-72.0 
0.22335868898212508 0.3678712655336387 1:271.0 2:322.0 3:938.0 4:2.299999952316284 5:11.0 6:13.0 7:-64.0 
0.09880541651440049 0.16552125259850498 1:2785.0 2:787.0 3:2565.0 4:2.4000000953674316 5:7.0 6:11.0 7:-70.0 
0.18496306927528883 0.30422402900153445 1:3424.0 2:885.0 3:1358.0 4:2.5 5:11.0 6:14.0 7:-57.0 
0.06327975308433456 0.10419032200924479 1:1404.0 2:324.0 3:62.0 4:2.299999952316284 5:12.0 6:15.0 7:-64.0 
0.22093990889064763 0.3635195149141338 1:222.0 2:1185.0 3:3380.0 4:2.5999999046325684 5:10.0 6:12.0 7:-76.0 
0.14222107176468468 0.23511766924608718 1:147.0 2:349.0 3:1163.0 4:2.5999999046325684 5:10.0 6:13.0 7:-67.0 
0.004483282175817671 0.0 2:20.0 3:25.0 4:2.5999999046325684 5:15.0 6:14.0 7:-66.0 
0.20043407951156433 0.34041201628849216 1:64.0 2:103.0 3:61.0 4:2.5999999046325684 5:15.0 6:15.0 7:-54.0 
0.1470206524409646 1.0 1:940.0 2:251.0 3:110.0 4:2.5999999046325684 5:15.0 6:15.0 7:-64.0 
0.18095104204252271 0.2977838845406776 1:185.0 2:949.0 3:2011.0 4:2.5999999046325684 5:10.0 6:12.0 7:-68.0 
0.17520736344820328 0.2876320322639447 1:30.0 2:39.0 3:152.0 4:2.5999999046325684 5:11.0 6:15.0 7:-68.0 
0.15764781840426573 0.2597262257351112 1:1287.0 2:621.0 3:5016.0 4:2.4000000953674316 5:15.0 6:12.0 7:-82.0 
0.056009289623793874 0.09062608831995485 1:3063.0 2:747.0 3:1174.0 4:2.5 5:15.0 6:15.0 7:-65.0 
0.15468072885087636 0.25517740572366043 1:1508.0 2:360.0 3:480.0 4:2.5 5:15.0 6:14.0 7:-71.0 
0.13336803771059638 0.21931251507045252 1:1026.0 2:206.0 3:1086.0 4:2.5 5:13.0 6:10.0 7:-87.0 
0.15260242311067215 0.25089067709184554 1:12.0 2:428.0 3:1570.0 4:2.5 5:15.0 6:13.0 7:-64.0 
0.2068199729511821 0.3409351807255797 1:1287.0 2:645.0 3:5268.0 4:2.4000000953674316 5:11.0 6:11.0 7:-88.0 
0.1996154011596314 0.3282532034924275 1:537.0 2:506.0 3:1932.0 4:2.4000000953674316 5:15.0 6:14.0 7:-65.0 
0.21897800820159585 0.360352694759467 1:172.0 2:87.0 3:183.0 4:2.5 5:10.0 6:13.0 7:-66.0 
0.11621507572668655 0.19038700022664606 1:216.0 2:291.0 3:753.0 4:2.299999952316284 5:15.0 6:13.0 7:-64.0 
0.09172359550007203 0.15390405194850715 1:318.0 2:382.0 3:2110.0 4:2.5 5:15.0 6:15.0 7:-80.0 
0.2156912364133225 0.3555169440029378 1:1287.0 2:461.0 3:3832.0 4:2.4000000953674316 5:7.0 6:13.0 7:-82.0 
0.11944542047716505 0.1952005834952242 1:1400.0 2:156.0 3:54.0 4:2.299999952316284 5:15.0 6:14.0 7:-64.0 
0.071976879727627 0.11635912368156347 1:1400.0 2:229.0 3:55.0 4:2.4000000953674316 5:15.0 6:15.0 7:-63.0 
0.22114358389233219 0.36380758051647444 1:614.0 2:783.0 3:3087.0 4:2.5999999046325684 5:7.0 6:13.0 7:-68.0 
0.1118445479177378 0.184740973986858 1:537.0 2:493.0 3:1859.0 4:2.200000047683716 5:7.0 6:13.0 7:-64.0 
0.22323039753011992 0.36804869627572245 2:258.0 3:665.0 4:2.5999999046325684 5:5.0 6:14.0 7:-65.0 
0.11284744491888388 0.18532984192814067 1:145.0 2:121.0 3:218.0 4:2.5 5:15.0 6:14.0 7:-70.0 
0.15776185915038163 0.25925931538224856 1:1400.0 2:143.0 3:54.0 4:2.4000000953674316 5:11.0 6:15.0 7:-64.0 
0.22238984578056875 0.3663383805313576 1:1287.0 2:331.0 3:2574.0 4:2.4000000953674316 5:11.0 6:11.0 7:-91.0 
0.03709365077851864 0.0507492513777404 1:3527.0 2:346.0 3:104.0 4:2.5999999046325684 5:15.0 6:15.0 7:-64.0 
0.1705575082343294 0.28048296684875523 1:318.0 2:405.0 3:2162.0 4:2.5 5:7.0 6:14.0 7:-80.0 
0.21382049499784828 0.3517919238062429 1:511.0 2:575.0 3:2234.0 4:2.5999999046325684 5:15.0 6:13.0 7:-66.0 
0.16473110057769547 0.2713208925020674 1:158.0 2:334.0 3:1195.0 4:2.5999999046325684 5:15.0 6:15.0 7:-68.0 
0.03783273086639751 0.06378024706201194 1:1026.0 2:163.0 3:682.0 4:2.5 5:14.0 6:12.0 7:-87.0 
0.11114088683632833 0.1830066915782971 1:3301.0 2:683.0 3:613.0 4:2.5 5:11.0 6:15.0 7:-58.0 
0.15967686756517258 0.2600434012258477 1:38.0 2:652.0 3:2755.0 4:2.4000000953674316 5:11.0 6:13.0 7:-64.0 
0.22335982720807795 0.3678971500082182 1:1815.0 2:270.0 3:258.0 4:2.5999999046325684 5:15.0 6:14.0 7:-56.0 
0.017602884508960283 0.02946399119174308 1:2759.0 2:486.0 3:760.0 4:2.5999999046325684 5:12.0 6:14.0 7:-54.0 
0.11405388473132035 0.1881306468674192 1:2576.0 2:624.0 3:1489.0 4:2.5 5:11.0 6:14.0 7:-71.0 
0.10988959518830747 0.18174286076360985 1:114.0 2:330.0 3:1046.0 4:2.5999999046325684 5:15.0 6:15.0 7:-68.0 
0.04367499371444508 0.11154606446189436 1:1400.0 2:223.0 3:55.0 4:2.4000000953674316 5:15.0 6:15.0 7:-64.0 
0.09549235494640984 0.15832994684940407 1:30.0 2:24.0 3:75.0 4:2.5999999046325684 5:15.0 6:14.0 7:-69.0 
0.05621460441254527 0.09360320771635294 1:1287.0 2:424.0 3:3562.0 4:2.4000000953674316 5:15.0 6:13.0 7:-82.0 
0.1899356568412051 0.31309476008640663 1:145.0 2:139.0 3:222.0 4:2.5 5:11.0 6:14.0 7:-70.0 
0.011978936067341671 0.020882502159515398 1:172.0 2:129.0 3:265.0 4:2.5 5:15.0 6:14.0 7:-65.0 
0.22201409649264345 0.36561625568466305 1:537.0 2:493.0 3:1854.0 4:2.4000000953674316 5:10.0 6:12.0 7:-64.0 
0.17482584633459597 0.28755191056534757 1:2747.0 2:717.0 3:1024.0 4:2.5999999046325684 5:10.0 6:14.0 7:-65.0 
0.21900564782380702 0.3608761399783803 1:3469.0 2:945.0 3:1608.0 4:2.5 5:10.0 6:14.0 7:-59.0 
0.0756129768382621 0.1254051010033856 1:1726.0 2:452.0 3:695.0 4:2.5 5:15.0 6:14.0 7:-72.0 
0.12250363727853703 0.2028449698960503 1:3126.0 2:921.0 3:2021.0 4:2.5 5:5.0 6:13.0 7:-62.0 
0.05731901200027934 0.09183667789150715 1:818.0 2:206.0 3:275.0 4:2.5 5:15.0 6:14.0 7:-72.0 
0.19524792182619743 0.32146920722269773 1:30.0 2:32.0 3:119.0 4:2.5999999046325684 5:10.0 6:15.0 7:-68.0 
0.21257171910198014 0.34988664849756673 1:1026.0 2:184.0 3:866.0 4:2.5 5:12.0 6:13.0 7:-88.0 
0.02734457003775849 0.036140083718516326 1:158.0 2:253.0 3:1102.0 4:2.5999999046325684 5:14.0 6:15.0 7:-61.0 
0.21831304053435507 0.3591328600962388 1:2279.0 2:570.0 3:1220.0 4:2.5 5:15.0 6:14.0 7:-72.0 
0.15614348719190418 0.2564691312630276 1:2733.0 2:440.0 3:182.0 4:2.5999999046325684 5:10.0 6:14.0 7:-74.0 
0.19042975940823825 0.3128022607710956 1:2759.0 2:486.0 3:759.0 4:2.5999999046325684 5:12.0 6:14.0 7:-54.0 
0.22071044439772208 0.36311492966855613 1:31.0 2:608.0 3:2534.0 4:2.4000000953674316 5:9.0 6:13.0 7:-64.0 
0.10959126128775014 0.1799879259568712 2:267.0 3:694.0 4:2.5 5:11.0 6:14.0 7:-65.0 
0.1544182489473137 0.2545705420390988 1:172.0 2:109.0 3:224.0 4:2.5 5:11.0 6:15.0 7:-65.0 
0.10558947261134619 0.1726932722774936 1:158.0 2:324.0 3:1166.0 4:2.5999999046325684 5:15.0 6:15.0 7:-67.0 
0.13245707256200073 0.21779632842282143 1:145.0 2:125.0 3:218.0 4:2.5 5:15.0 6:15.0 7:-70.0 
0.1116877326187127 0.18421751386537716 1:511.0 2:591.0 3:2277.0 4:2.5999999046325684 5:7.0 6:14.0 7:-68.0 
0.09436448865515949 0.15558289191908692 1:3104.0 2:899.0 3:1900.0 4:2.5 5:9.0 6:12.0 7:-65.0 
0.14582998530502522 0.2404934481983084 1:3149.0 2:969.0 3:2253.0 4:2.5 5:11.0 6:13.0 7:-64.0 
0.13440897250907619 0.22201323279162308 1:158.0 2:206.0 3:850.0 4:2.5999999046325684 5:10.0 6:14.0 7:-78.0 
0.21060050428552674 0.34612018767644914 1:1287.0 2:442.0 3:3709.0 4:2.4000000953674316 5:15.0 6:14.0 7:-82.0 
0.22337762413794465 0.3682880744854378 1:2892.0 2:622.0 3:388.0 4:2.5999999046325684 5:15.0 6:15.0 7:-58.0 
0.13724151461318262 0.22591395678180964 1:167.0 2:728.0 3:1477.0 4:2.5999999046325684 5:9.0 6:14.0 7:-70.0 
0.1293795428232929 0.21117102505705562 1:158.0 2:135.0 3:606.0 4:2.5999999046325684 5:11.0 6:14.0 7:-78.0 
0.12611550690614548 0.20813808492012037 1:1026.0 2:256.0 3:1616.0 4:2.5 5:10.0 6:12.0 7:-91.0 
0.0060919590142324165 0.009962682557438795 1:172.0 2:58.0 3:98.0 4:2.5 5:15.0 6:14.0 7:-66.0 
0.12064899312869669 0.20060569098455178 1:3178.0 2:1089.0 3:2707.0 4:2.5 5:15.0 6:12.0 7:-64.0 
0.22335918676581623 0.36794920980245466 1:1287.0 2:765.0 3:6595.0 4:2.4000000953674316 5:6.0 6:12.0 7:-86.0 
0.11854602553931845 0.1829079845199202 1:3573.0 2:390.0 3:179.0 4:2.4000000953674316 5:15.0 6:15.0 7:-65.0 
0.22294817542508633 0.36684764878356285 1:165.0 2:694.0 3:1345.0 4:2.5999999046325684 5:5.0 6:15.0 7:-72.0 
0.2016145676895591 0.33217904897180567 1:31.0 2:601.0 3:2490.0 4:2.5 5:10.0 6:13.0 7:-64.0 
0.08014696102693428 0.13010041480138698 1:1726.0 2:456.0 3:698.0 4:2.5 5:15.0 6:14.0 7:-72.0 
0.22296244929672882 0.3665671641593939 1:237.0 2:1245.0 3:3702.0 4:2.5999999046325684 5:15.0 6:11.0 7:-77.0 
0.13982313585026102 0.2300760766691692 1:1287.0 2:500.0 3:4077.0 4:2.4000000953674316 5:15.0 6:13.0 7:-82.0 
0.2175644677786739 0.35839575123699813 1:587.0 2:717.0 3:2733.0 4:2.5999999046325684 5:10.0 6:14.0 7:-68.0 
0.12736188987211788 0.20838269682186406 1:149.0 2:669.0 3:1275.0 4:2.5999999046325684 5:15.0 6:14.0 7:-72.0 
0.07257465290848247 0.11990947362947761 2:182.0 3:396.0 4:2.5999999046325684 5:15.0 6:14.0 7:-64.0 
0.18260324437555614 0.2987073069020999 1:1287.0 2:705.0 3:6051.0 4:2.4000000953674316 5:15.0 6:11.0 7:-86.0 
0.21070142378997175 0.3463941454851253 1:3071.0 2:994.0 3:3696.0 4:2.4000000953674316 5:10.0 6:14.0 7:-72.0 
0.19346099470110906 0.31840297101337506 1:2735.0 2:674.0 3:825.0 4:2.5999999046325684 5:15.0 6:14.0 7:-67.0 
0.22306291950121848 0.3671634156093912 1:300.0 2:496.0 3:1885.0 4:2.5999999046325684 5:10.0 6:12.0 7:-67.0 
0.13279319006796778 0.21914230660728848 1:318.0 2:430.0 3:2222.0 4:2.5 5:10.0 6:14.0 7:-79.0 
0.16187292169062972 0.26693211969857955 1:2735.0 2:667.0 3:786.0 4:2.5999999046325684 5:15.0 6:14.0 7:-67.0 
0.07065242078708352 0.11821270605632832 1:2733.0 2:457.0 3:263.0 4:2.5999999046325684 5:15.0 6:14.0 7:-71.0 
0.2047572615172596 0.3369415653443326 1:222.0 2:1200.0 3:3426.0 4:2.5999999046325684 5:15.0 6:12.0 7:-78.0 
0.1124344175906612 0.18526030297123694 1:1287.0 2:501.0 3:4081.0 4:2.4000000953674316 5:15.0 6:14.0 7:-82.0 
0.13478544224009853 0.2208474757423674 1:99.0 2:295.0 3:891.0 4:2.5999999046325684 5:11.0 6:14.0 7:-68.0 
0.02653010946863154 0.027391451023342436 1:98.0 2:264.0 3:773.0 4:2.5999999046325684 5:15.0 6:15.0 7:-68.0 
0.17260707263185804 0.2829337687439243 1:1287.0 2:328.0 3:2525.0 4:2.5 5:11.0 6:11.0 7:-91.0 
0.22348385318429137 0.3678422226243589 1:266.0 2:1310.0 3:4054.0 4:2.5999999046325684 5:15.0 6:13.0 7:-76.0 
0.12496793889227331 0.20676006800287233 1:2747.0 2:707.0 3:964.0 4:2.5999999046325684 5:15.0 6:14.0 7:-65.0 
0.154050254553718 0.2536429591134492 1:12.0 2:337.0 3:1041.0 4:2.5 5:15.0 6:13.0 7:-64.0 
0.15798823289761066 0.26035132660444577 1:3287.0 2:1241.0 3:3162.0 4:2.4000000953674316 5:15.0 6:12.0 7:-64.0 
0.2235952315858582 0.3677937027250068 1:1524.0 2:488.0 3:134.0 4:2.5999999046325684 5:12.0 6:15.0 7:-59.0 
0.20804809011363068 0.34268885367875823 1:3285.0 2:1184.0 3:3034.0 4:2.4000000953674316 5:10.0 6:13.0 7:-64.0 
0.2144420216927407 0.3527113268433687 1:12.0 2:405.0 3:1457.0 4:2.5 5:15.0 6:11.0 7:-65.0 
0.08022603668532774 0.1334114659827747 1:2772.0 2:588.0 3:297.0 4:2.5999999046325684 5:15.0 6:15.0 7:-58.0 
0.22309760892091762 0.367123399177395 1:2351.0 2:591.0 3:1342.0 4:2.5 5:15.0 6:13.0 7:-72.0 
0.09869667019375197 0.16383367996901887 2:292.0 3:817.0 4:2.5 5:10.0 6:13.0 7:-65.0 
0.20058250822777365 0.3301729605515159 1:2733.0 2:429.0 3:147.0 4:2.5999999046325684 5:15.0 6:14.0 7:-74.0 
0.10112851883817661 0.16692721267070165 1:1287.0 2:443.0 3:3725.0 4:2.4000000953674316 5:15.0 6:13.0 7:-82.0 
0.2235284259015105 0.36794493984983545 1:249.0 2:300.0 3:790.0 4:2.299999952316284 5:15.0 6:14.0 7:-64.0 
0.02838532564913367 0.04723460896886879 1:318.0 2:379.0 3:2093.0 4:2.5 5:15.0 6:14.0 7:-80.0 
0.17616621927186582 0.28977868503711496 1:1287.0 2:304.0 3:2152.0 4:2.5 5:10.0 6:13.0 7:-90.0 
0.17469508137643458 0.28753970868871115 1:1287.0 2:731.0 3:6327.0 4:2.4000000953674316 5:7.0 6:13.0 7:-85.0 
0.09127384331512235 0.1516473629496143 1:167.0 2:727.0 3:1466.0 4:2.5999999046325684 5:15.0 6:14.0 7:-70.0 
0.08868961884120515 0.14531610532477682 1:2747.0 2:549.0 3:224.0 4:2.5999999046325684 5:11.0 6:14.0 7:-59.0 
0.14400995544167794 0.23706111344486516 1:185.0 2:972.0 3:2107.0 4:2.5999999046325684 5:11.0 6:12.0 7:-68.0 
0.21121103842067526 0.3479525277967634 1:30.0 2:145.0 3:549.0 4:2.5999999046325684 5:7.0 6:14.0 7:-67.0 
0.011051712893002077 0.0 2:26.0 3:62.0 4:2.5 5:15.0 6:13.0 7:-75.0 
0.0 0.06672133557667069 1:1400.0 2:149.0 3:54.0 4:2.299999952316284 5:15.0 6:15.0 7:-64.0 
0.12200242319086518 0.19941556225149235 1:172.0 2:57.0 3:94.0 4:2.5 5:15.0 6:15.0 7:-66.0 
0.16148064789236383 0.2657655429097318 1:1344.0 2:299.0 3:344.0 4:2.5 5:11.0 6:14.0 7:-68.0 
0.22359582261844196 0.368171587941219 1:3224.0 2:302.0 3:45.0 4:2.5999999046325684 5:15.0 6:15.0 7:-63.0 
0.22150833938098205 0.3650428392493304 1:587.0 2:743.0 3:2846.0 4:2.5999999046325684 5:15.0 6:12.0 7:-68.0 
0.030390469295514012 0.04846994607261035 1:1508.0 2:355.0 3:468.0 4:2.5 5:12.0 6:15.0 7:-72.0 
0.07641184151160728 0.12630008595192282 2:202.0 3:473.0 4:2.5999999046325684 5:15.0 6:15.0 7:-65.0 
0.12095146002065994 0.19799177540082663 1:167.0 2:825.0 3:1650.0 4:2.5999999046325684 5:15.0 6:14.0 7:-71.0 
0.2229784906777584 0.3670645540130704 1:2504.0 2:615.0 3:1450.0 4:2.5 5:15.0 6:14.0 7:-71.0 
0.16548225288288243 0.2723053782505855 2:96.0 3:175.0 4:2.5 5:15.0 6:15.0 7:-66.0 
0.22352405111947365 0.3683681510602071 1:69.0 2:668.0 3:2833.0 4:2.299999952316284 5:5.0 6:12.0 7:-64.0 
0.22333623865353153 0.3680929694498623 1:3156.0 2:634.0 3:441.0 4:2.5999999046325684 5:15.0 6:15.0 7:-58.0 
0.1064547948517377 0.17486694906673944 1:2847.0 2:831.0 3:2816.0 4:2.4000000953674316 5:10.0 6:13.0 7:-72.0 
0.2146134553567003 0.3523386766355915 1:1287.0 2:677.0 3:5727.0 4:2.4000000953674316 5:11.0 6:10.0 7:-86.0 
0.21418478642488115 0.3524073357931141 1:537.0 2:504.0 3:1924.0 4:2.4000000953674316 5:11.0 6:13.0 7:-66.0 
0.12549382563641778 0.20644357555069265 2:196.0 3:441.0 4:2.5999999046325684 5:15.0 6:15.0 7:-64.0 
0.1164286730895883 0.1925566506222046 1:31.0 2:579.0 3:2336.0 4:2.5 5:7.0 6:13.0 7:-64.0 
0.18635835531625516 0.30617769438013914 1:1287.0 2:714.0 3:6123.0 4:2.4000000953674316 5:10.0 6:13.0 7:-85.0 
0.07547296481663733 0.12191162335688999 1:2731.0 2:466.0 3:717.0 4:2.5999999046325684 5:15.0 6:14.0 7:-56.0 
0.18314423434981403 0.3010749289517249 1:1287.0 2:309.0 3:2218.0 4:2.5 5:12.0 6:12.0 7:-90.0 
0.06412314783171673 0.10581110918186092 1:2772.0 2:606.0 3:341.0 4:2.5999999046325684 5:15.0 6:14.0 7:-56.0 
0.10417611679247146 0.17127785697873865 1:2747.0 2:739.0 3:2279.0 4:2.4000000953674316 5:11.0 6:12.0 7:-73.0 
0.22361459667463635 0.3676438781049419 1:2185.0 2:514.0 3:164.0 4:2.5999999046325684 5:15.0 6:15.0 7:-59.0 
0.20560557476165656 0.33836464178761405 1:147.0 2:382.0 3:1318.0 4:2.5999999046325684 5:11.0 6:12.0 7:-67.0 
0.18200678300808848 0.29961932900993254 1:167.0 2:797.0 3:1618.0 4:2.5999999046325684 5:10.0 6:15.0 7:-70.0 
0.13600645392394173 0.22302916905884976 2:173.0 3:363.0 4:2.5999999046325684 5:11.0 6:15.0 7:-65.0 
0.1742494698483148 0.2864810363143395 1:2092.0 2:329.0 3:391.0 4:2.5999999046325684 5:10.0 6:15.0 7:-56.0 
0.0 0.0037475683807208413 1:2733.0 2:484.0 3:327.0 4:2.5999999046325684 5:15.0 6:14.0 7:-71.0 
0.05518030411637481 0.0896903875415487 1:145.0 2:75.0 3:192.0 4:2.5 5:10.0 6:14.0 7:-70.0 
0.0665695046235522 0.10873658272389808 1:2735.0 2:676.0 3:835.0 4:2.5999999046325684 5:15.0 6:15.0 7:-66.0 
0.1745516535902114 0.2873882790074188 1:63.0 2:169.0 3:599.0 4:2.5999999046325684 5:15.0 6:15.0 7:-68.0 
0.1406888882842693 0.23117607902856585 1:3149.0 2:976.0 3:2277.0 4:2.5 5:11.0 6:13.0 7:-64.0 
0.08000192591224592 0.13196222991007062 1:1508.0 2:328.0 3:410.0 4:2.5 5:15.0 6:15.0 7:-72.0 
0.09468644024866026 0.15577551985348104 1:2772.0 2:607.0 3:342.0 4:2.5999999046325684 5:15.0 6:15.0 7:-58.0 
0.1589114374094336 0.2612652780728908 1:300.0 2:496.0 3:1893.0 4:2.5999999046325684 5:12.0 6:13.0 7:-67.0 
0.04859800828740122 0.07929220945341746 1:318.0 2:347.0 3:2010.0 4:2.5 5:15.0 6:14.0 7:-80.0 
0.02682188377893272 0.046615513345546464 1:172.0 2:60.0 3:105.0 4:2.5 5:15.0 6:14.0 7:-66.0 
0.18211291851384037 0.29978224931328046 1:3148.0 2:960.0 3:2205.0 4:2.5 5:15.0 6:13.0 7:-64.0 
0.21404431001364088 0.35299276214236214 1:113.0 2:324.0 3:1010.0 4:2.5999999046325684 5:11.0 6:13.0 7:-67.0 
0.15094940140075397 0.24855612392450707 1:3165.0 2:1040.0 3:2566.0 4:2.5 5:10.0 6:12.0 7:-64.0 
0.1784708154904185 0.293281260657859 1:3079.0 2:840.0 3:1638.0 4:2.5 5:9.0 6:13.0 7:-65.0 
0.2058915586085472 0.33973912400698714 1:3469.0 2:927.0 3:1539.0 4:2.5 5:11.0 6:14.0 7:-59.0 
0.02308210708750434 0.03747510190243321 1:158.0 2:261.0 3:1104.0 4:2.5999999046325684 5:15.0 6:15.0 7:-61.0 
0.09361379317066504 0.2960315590199177 2:18.0 3:87.0 4:2.5999999046325684 5:11.0 6:11.0 7:-91.0 
0.04989805098657608 0.07823284790832735 1:145.0 2:55.0 3:177.0 4:2.5999999046325684 5:15.0 6:14.0 7:-70.0 
0.21908416130881403 0.36120601838075594 1:607.0 2:781.0 3:3073.0 4:2.5999999046325684 5:7.0 6:13.0 7:-68.0 
0.2234595856283752 0.3681898397687725 1:949.0 2:247.0 3:292.0 4:2.5 5:15.0 6:14.0 7:-71.0 
0.16285982577580846 0.2684701836372231 1:1026.0 2:178.0 3:819.0 4:2.5 5:14.0 6:13.0 7:-87.0 
0.22338192839901128 0.3678255179381085 1:3284.0 2:1145.0 3:2891.0 4:2.4000000953674316 5:7.0 6:12.0 7:-64.0 
0.21970094037756227 0.361895993417318 1:97.0 2:243.0 3:725.0 4:2.5999999046325684 5:7.0 6:13.0 7:-68.0 
0.05370585036435954 0.08728637640149572 1:2733.0 2:466.0 3:270.0 4:2.5999999046325684 5:15.0 6:15.0 7:-71.0 
0.16986688032984482 0.2792039418249012 1:1287.0 2:408.0 3:3394.0 4:2.4000000953674316 5:11.0 6:13.0 7:-81.0 
0.17707601037103116 0.291384301623774 1:2726.0 2:455.0 3:699.0 4:2.5999999046325684 5:10.0 6:15.0 7:-56.0 
0.22337880967819784 0.3675338131449121 1:2414.0 2:249.0 3:41.0 4:2.5999999046325684 5:15.0 6:14.0 7:-62.0 
0.14743438317380766 0.24249886988189231 1:2733.0 2:450.0 3:235.0 4:2.5999999046325684 5:11.0 6:15.0 7:-72.0 
0.11062957542120772 0.18156497460346624 1:318.0 2:369.0 3:2069.0 4:2.5 5:12.0 6:15.0 7:-80.0 
0.1452293737787647 0.23812970885741586 1:2770.0 2:494.0 3:770.0 4:2.5999999046325684 5:10.0 6:15.0 7:-57.0 
0.12228447838280024 0.20203149643566157 1:2733.0 2:448.0 3:227.0 4:2.5999999046325684 5:11.0 6:14.0 7:-71.0 
0.10871745349224578 0.17957445473332512 1:1260.0 2:310.0 3:127.0 4:2.5999999046325684 5:15.0 6:15.0 7:-65.0 
0.045951216395177914 0.07680433412958498 1:2841.0 2:818.0 3:2756.0 4:2.4000000953674316 5:15.0 6:13.0 7:-72.0 
0.22261815092565168 0.36730808362681855 1:2880.0 2:888.0 3:3105.0 4:2.4000000953674316 5:5.0 6:13.0 7:-72.0 
0.14313123979972628 0.23640244680822015 1:384.0 2:381.0 3:1260.0 4:2.4000000953674316 5:7.0 6:11.0 7:-64.0 
0.06499737650640335 0.10708017379212555 1:1260.0 2:328.0 3:164.0 4:2.5999999046325684 5:15.0 6:15.0 7:-63.0 
0.18293899325842797 0.3006939014663803 1:203.0 2:442.0 3:1623.0 4:2.5999999046325684 5:7.0 6:13.0 7:-67.0 
0.08693847859247 0.1427968681746967 1:1026.0 2:90.0 3:335.0 4:2.5999999046325684 5:15.0 6:11.0 7:-86.0 
0.22073638031197795 0.3635377476560399 2:289.0 3:757.0 4:2.5 5:7.0 6:13.0 7:-65.0 
0.2092071036334933 0.34534657860235446 2:22.0 3:23.0 4:2.5999999046325684 5:7.0 6:15.0 7:-64.0 
0.22341475583884463 0.36791728145456637 1:300.0 2:497.0 3:1900.0 4:2.5999999046325684 5:7.0 6:11.0 7:-66.0 
0.16804312246671782 0.27526690923548874 1:31.0 2:496.0 3:1921.0 4:2.5 5:15.0 6:13.0 7:-64.0 
0.20839315967077426 0.3439026953152393 1:3148.0 2:957.0 3:2185.0 4:2.5 5:10.0 6:14.0 7:-64.0 
0.23993226968183862 1.0 1:148.0 2:631.0 3:1195.0 4:2.5999999046325684 5:11.0 6:14.0 7:-60.0 
0.18278066076920646 0.30049611920719943 1:12.0 2:371.0 3:1266.0 4:2.5 5:15.0 6:12.0 7:-65.0 
0.22032450953805854 0.3626198323781914 1:237.0 2:1278.0 3:3855.0 4:2.5999999046325684 5:15.0 6:12.0 7:-77.0 
0.13787239482739555 0.2252400844477635 1:2576.0 2:627.0 3:1516.0 4:2.5 5:9.0 6:14.0 7:-72.0 
0.2186289759619881 0.3597202517524906 1:1287.0 2:725.0 3:6256.0 4:2.4000000953674316 5:10.0 6:13.0 7:-87.0 
0.2233787191823074 0.3674153531960774 1:1226.0 2:303.0 3:125.0 4:2.5999999046325684 5:15.0 6:15.0 7:-62.0 
0.17416937211333947 0.28610824522723716 1:1287.0 2:396.0 3:3327.0 4:2.4000000953674316 5:15.0 6:13.0 7:-82.0 
0.04042387275676259 0.06647140985301843 1:1400.0 2:125.0 3:53.0 4:2.299999952316284 5:15.0 6:15.0 7:-64.0 
0.20845572845340044 0.34319967046540645 1:96.0 2:199.0 3:640.0 4:2.5999999046325684 5:15.0 6:14.0 7:-68.0 
0.21586660455710605 0.355894748608337 1:2880.0 2:882.0 3:3090.0 4:2.4000000953674316 5:12.0 6:13.0 7:-72.0 
0.1910271421198233 0.3141776784128907 1:1404.0 2:346.0 3:106.0 4:2.299999952316284 5:6.0 6:14.0 7:-66.0 
0.11215432715802474 0.18575264787040746 1:1508.0 2:376.0 3:511.0 4:2.5 5:15.0 6:14.0 7:-73.0 
0.17006372694733457 0.27903344482965975 1:203.0 2:422.0 3:1557.0 4:2.5999999046325684 5:11.0 6:13.0 7:-56.0 
0.214587836530576 0.3536041703439039 1:318.0 2:314.0 3:1919.0 4:2.5 5:6.0 6:14.0 7:-80.0 
0.21899649608717403 0.36043135219846706 1:172.0 2:408.0 3:1474.0 4:2.5999999046325684 5:9.0 6:13.0 7:-67.0 
0.2230069019076135 0.36746002316585624 1:158.0 2:200.0 3:813.0 4:2.5999999046325684 5:9.0 6:14.0 7:-78.0 
0.18345237857283886 0.3020467992209985 1:1287.0 2:388.0 3:3270.0 4:2.4000000953674316 5:7.0 6:14.0 7:-82.0 
0.14292551970986264 0.23485521948687454 1:31.0 2:619.0 3:2582.0 4:2.4000000953674316 5:15.0 6:12.0 7:-64.0 
0.012758305395270961 0.017672017553712446 1:145.0 2:50.0 3:168.0 4:2.5999999046325684 5:15.0 6:15.0 7:-70.0 
0.14859886102796016 0.24429963608556798 1:1287.0 2:713.0 3:6103.0 4:2.4000000953674316 5:10.0 6:13.0 7:-85.0 
0.21320157333053846 0.35094366625744766 1:1287.0 2:588.0 3:4749.0 4:2.4000000953674316 5:13.0 6:10.0 7:-87.0 
0.20827452008982145 0.3429502497316935 1:38.0 2:652.0 3:2765.0 4:2.4000000953674316 5:10.0 6:11.0 7:-64.0 
0.19804449036494526 0.32526338651487857 1:222.0 2:1186.0 3:3392.0 4:2.5999999046325684 5:11.0 6:12.0 7:-78.0 
0.2087338952457471 0.344224993907763 1:403.0 2:538.0 3:2087.0 4:2.5999999046325684 5:15.0 6:14.0 7:-66.0 
0.22353853858275335 0.36772287334988957 1:511.0 2:627.0 3:2365.0 4:2.5999999046325684 5:15.0 6:14.0 7:-67.0 
0.17841890082759293 0.2933618203650111 1:185.0 2:939.0 3:1994.0 4:2.5999999046325684 5:15.0 6:12.0 7:-68.0 
0.013691758677082728 0.025118141216532396 1:3527.0 2:346.0 3:104.0 4:2.5999999046325684 5:15.0 6:15.0 7:-63.0 
0.22357961721819647 0.36784323543730596 1:3079.0 2:844.0 3:1667.0 4:2.5 5:15.0 6:12.0 7:-65.0 
0.05789624117743643 0.09538565062708318 1:185.0 2:931.0 3:1959.0 4:2.5999999046325684 5:15.0 6:12.0 7:-62.0 
0.16707438205882225 0.2749579057533579 1:30.0 2:20.0 3:66.0 4:2.5999999046325684 5:12.0 6:15.0 7:-68.0 
0.0022542157955442454 0.005942648708866923 1:318.0 2:418.0 3:2205.0 4:2.5 5:15.0 6:14.0 7:-80.0 
0.10112180275624527 0.1661992764710677 2:217.0 3:537.0 4:2.5999999046325684 5:15.0 6:14.0 7:-64.0 
0.2106532349397259 0.18299212666280518 1:31.0 2:524.0 3:2069.0 4:2.4000000953674316 5:15.0 6:13.0 7:-64.0 
0.21964161301523283 0.36131807839017144 1:1287.0 2:334.0 3:2615.0 4:2.4000000953674316 5:15.0 6:12.0 7:-91.0 
0.12599481228733078 0.20733742931714536 1:2772.0 2:558.0 3:234.0 4:2.5999999046325684 5:15.0 6:15.0 7:-56.0 
0.15803283791717582 0.25982782070183774 1:3343.0 2:694.0 3:658.0 4:2.5 5:10.0 6:14.0 7:-58.0 
0.10245769175841613 0.0 1:148.0 2:662.0 3:1253.0 4:2.5999999046325684 5:15.0 6:13.0 7:-71.0 
0.06888895785608164 0.11439385186174932 1:2747.0 2:710.0 3:975.0 4:2.5999999046325684 5:11.0 6:14.0 7:-65.0 
0.22317899979392325 0.3673976823644516 1:145.0 2:24.0 3:72.0 4:2.5999999046325684 6:14.0 7:-90.0 
0.21857341073153896 0.3599788133884433 1:607.0 2:781.0 3:3077.0 4:2.5999999046325684 5:15.0 6:12.0 7:-68.0 
0.15424973506051703 0.2527433653488492 1:158.0 2:305.0 3:1138.0 4:2.5999999046325684 5:15.0 6:15.0 7:-68.0 
0.22350329705368682 0.3682997988155512 1:1571.0 2:490.0 3:136.0 4:2.5999999046325684 5:15.0 6:15.0 7:-59.0 
0.2233650345973509 0.3682647061602941 1:1287.0 2:609.0 3:4934.0 4:2.4000000953674316 5:7.0 6:11.0 7:-83.0 
0.14978046500371833 0.24666631293297175 1:30.0 2:126.0 3:489.0 4:2.5999999046325684 5:10.0 6:15.0 7:-67.0 
0.13619692960986823 0.2253063630985948 1:1287.0 2:716.0 3:6124.0 4:2.4000000953674316 5:7.0 6:12.0 7:-85.0 
0.17774546050516593 0.29233091500545744 1:2754.0 2:746.0 3:2317.0 4:2.5 5:15.0 6:13.0 7:-72.0 
0.21749090310448466 0.35780103747091424 1:1056.0 2:289.0 3:92.0 4:2.5999999046325684 5:7.0 6:14.0 7:-55.0 
0.1760905844077541 0.29006267513520817 1:537.0 2:475.0 3:1772.0 4:2.4000000953674316 5:15.0 6:12.0 7:-65.0 
0.199021140458777 0.3275347757832845 1:2733.0 2:450.0 3:236.0 4:2.5999999046325684 5:15.0 6:14.0 7:-71.0 
0.09493368879417853 0.15580470307653918 1:2772.0 2:608.0 3:352.0 4:2.5999999046325684 5:15.0 6:15.0 7:-56.0 
0.21931417497833394 0.36059658985539017 1:3301.0 2:680.0 3:568.0 4:2.5999999046325684 5:6.0 6:13.0 7:-56.0 
0.1928719167787048 0.3181843287625297 1:318.0 2:353.0 3:2037.0 4:2.5 5:12.0 6:14.0 7:-80.0 
0.16865213126726336 0.27731584816089294 1:2772.0 2:612.0 3:359.0 4:2.5999999046325684 5:11.0 6:15.0 7:-58.0 
0.21919106890852447 0.36066365630676056 1:3079.0 2:841.0 3:1643.0 4:2.5 5:15.0 6:13.0 7:-65.0 
0.12251147467943697 0.20154893706741572 1:1726.0 2:462.0 3:721.0 4:2.5 5:15.0 6:14.0 7:-70.0 
0.10010214868723022 0.17075183812282205 1:216.0 2:250.0 3:610.0 4:2.5 5:15.0 6:13.0 7:-64.0 
0.16796675059678673 0.27704748580054883 1:3358.0 2:728.0 3:826.0 4:2.5 5:15.0 6:14.0 7:-59.0 
0.22362290033643473 0.36755289510486855 1:2333.0 2:352.0 3:470.0 4:2.5999999046325684 5:10.0 6:15.0 7:-56.0 
0.15951972924861785 0.26247097328583446 1:165.0 2:695.0 3:1345.0 4:2.5999999046325684 5:15.0 6:15.0 7:-72.0 
0.07068290676843644 0.11615531203113594 1:1287.0 2:361.0 3:3016.0 4:2.4000000953674316 5:15.0 6:13.0 7:-84.0 
0.12025472539765285 0.197750292439484 2:47.0 3:72.0 4:2.5999999046325684 5:10.0 6:15.0 7:-65.0 
0.09062315590869902 0.14768181946830522 1:3469.0 2:955.0 3:1688.0 4:2.5 5:10.0 6:12.0 7:-59.0 
0.039251413958993994 0.0674538027619053 1:172.0 2:91.0 3:194.0 4:2.5 5:15.0 6:15.0 7:-65.0 
0.17057220414058305 0.28133352395285954 1:182.0 2:131.0 3:273.0 4:2.5 5:9.0 6:14.0 7:-66.0 
0.1975547291498751 0.32580593775804695 1:158.0 2:293.0 3:1119.0 4:2.5999999046325684 5:10.0 6:14.0 7:-68.0 
0.1916871216400794 0.31495886677891116 1:616.0 2:809.0 3:3250.0 4:2.5999999046325684 5:15.0 6:13.0 7:-68.0 
0.19908004741644195 0.3270748529634097 1:1287.0 2:433.0 3:3621.0 4:2.4000000953674316 5:11.0 6:14.0 7:-82.0 
0.08605690229645921 0.14134177824990146 1:216.0 2:159.0 3:341.0 4:2.5 5:15.0 6:14.0 7:-64.0 
0.19739722732223097 0.32460985003252313 1:2980.0 2:973.0 3:3547.0 4:2.4000000953674316 5:7.0 6:10.0 7:-71.0 
0.21420204079665417 0.3529396863451101 1:1287.0 2:499.0 3:4074.0 4:2.4000000953674316 5:10.0 6:13.0 7:-82.0 
0.1451795526435284 0.23967540801620058 1:2733.0 2:444.0 3:195.0 4:2.5999999046325684 5:10.0 6:14.0 7:-74.0 
0.10138442672379634 0.167001873408544 1:980.0 2:257.0 3:296.0 4:2.5 5:11.0 6:15.0 7:-72.0 
0.09362012854442686 0.1530457806984458 1:1869.0 2:474.0 3:767.0 4:2.5 5:15.0 6:15.0 7:-72.0 
0.060752784616108904 0.10178711157595616 1:1026.0 2:138.0 3:518.0 4:2.5 5:15.0 6:13.0 7:-86.0 
0.15225603486502925 0.2498912145285491 1:185.0 2:973.0 3:2130.0 4:2.5999999046325684 5:11.0 6:12.0 7:-62.0 
0.1876705933256359 0.30861085475386557 1:220.0 2:1010.0 3:2362.0 4:2.5999999046325684 5:7.0 6:12.0 7:-68.0 
0.06458249522212546 0.10893650099113641 1:1026.0 2:152.0 3:592.0 4:2.5 5:15.0 6:13.0 7:-86.0 
0.25754408672298723 1.0 1:148.0 2:591.0 3:1012.0 4:2.5999999046325684 5:15.0 6:15.0 7:-70.0 
0.06352518756912687 0.09850752116069021 1:158.0 2:183.0 3:696.0 4:2.5999999046325684 5:15.0 6:14.0 7:-62.0 
0.12966572355572495 0.21326385605260392 1:318.0 2:393.0 3:2139.0 4:2.5 5:15.0 6:15.0 7:-80.0 
0.13615875424237134 0.22271418365665271 1:3176.0 2:1066.0 3:2631.0 4:2.4000000953674316 5:11.0 6:11.0 7:-64.0 
0.2213838492402761 0.3647429313748376 1:3469.0 2:973.0 3:1782.0 4:2.5 5:15.0 6:13.0 7:-59.0 
0.14942888499168283 0.24709001684150922 1:12.0 2:425.0 3:1546.0 4:2.4000000953674316 5:10.0 6:12.0 7:-65.0 
0.10426718572566135 0.1714458158586399 1:3285.0 2:1184.0 3:3016.0 4:2.4000000953674316 5:10.0 6:13.0 7:-64.0 
0.126895257095167 0.2083705346362886 1:158.0 2:280.0 3:1118.0 4:2.5999999046325684 5:15.0 6:15.0 7:-59.0 
0.034023657964838847 0.054527320455150366 1:1026.0 2:155.0 3:612.0 4:2.5 5:13.0 6:13.0 7:-88.0 
0.20980537216331835 0.3461456731652781 1:2607.0 2:653.0 3:1653.0 4:2.5 5:6.0 6:12.0 7:-72.0 
0.0436549977568169 0.07064908301763836 1:192.0 2:140.0 3:292.0 4:2.5 5:11.0 6:13.0 7:-66.0 
0.2239680598192953 0.36813337857235584 1:1000.0 2:267.0 3:71.0 4:2.5999999046325684 5:15.0 6:15.0 7:-58.0 
0.1813616472629871 0.29815596096660824 1:172.0 2:63.0 3:110.0 4:2.5 5:15.0 6:15.0 7:-66.0 
0.22352091551186676 0.3678693165324928 1:448.0 2:170.0 3:245.0 4:2.5 5:15.0 6:14.0 7:-72.0 
0.15324034208149248 0.25171304101110925 1:1400.0 2:109.0 3:53.0 4:2.5 5:10.0 6:15.0 7:-64.0 
0.21417375751054873 0.35286512433414013 1:2841.0 2:810.0 3:2678.0 4:2.4000000953674316 5:7.0 6:13.0 7:-70.0 
0.19380030283654825 0.31954917770765445 1:222.0 2:1122.0 3:2982.0 4:2.5999999046325684 5:7.0 6:12.0 7:-78.0 
0.07323577929305214 0.1184239922323589 1:818.0 2:215.0 3:276.0 4:2.5 5:15.0 6:15.0 7:-72.0 
0.22252579106942655 0.36664860467572236 1:1287.0 2:625.0 3:5040.0 4:2.4000000953674316 5:10.0 6:9.0 7:-85.0 
0.21366842247906886 0.3520976817803057 1:1026.0 2:188.0 3:902.0 4:2.5 5:7.0 6:12.0 7:-92.0 
0.13313352885138346 0.21892687235037647 1:1026.0 2:180.0 3:835.0 4:2.5 5:15.0 6:14.0 7:-86.0 
0.20714670233472093 0.3415053829608177 1:31.0 2:579.0 3:2324.0 4:2.5 5:10.0 6:13.0 7:-64.0 
0.11903548833006616 0.19580417324033114 1:2733.0 2:527.0 3:433.0 4:2.5999999046325684 5:15.0 6:15.0 7:-66.0 
0.22341459463808694 0.36822218245695554 1:2692.0 2:691.0 3:1974.0 4:2.5 5:15.0 6:5.0 7:-72.0 
0.06376885974941995 0.10346128422298415 1:317.0 2:261.0 3:1722.0 4:2.5999999046325684 5:10.0 6:14.0 7:-80.0 
0.10272958450263871 0.1695975049784542 1:2754.0 2:752.0 3:2350.0 4:2.4000000953674316 5:7.0 6:13.0 7:-73.0 
0.01611000939815326 0.024011639450344846 1:82.0 2:197.0 3:62.0 4:2.5999999046325684 5:11.0 6:15.0 7:-54.0 
0.2201769493898629 0.36260863246247416 1:2947.0 2:958.0 3:3482.0 4:2.4000000953674316 5:15.0 6:12.0 7:-72.0 
0.11740691659096367 0.19464328265029696 1:2735.0 2:695.0 3:906.0 4:2.5999999046325684 5:11.0 6:14.0 7:-64.0 
0.22318514786739146 0.36781297478859976 1:615.0 2:799.0 3:3178.0 4:2.5999999046325684 5:11.0 6:12.0 7:-78.0 
0.2181542180125756 0.35894600316992814 1:158.0 2:239.0 3:1016.0 4:2.5999999046325684 5:10.0 6:14.0 7:-76.0 
0.17777484663726031 0.29179518153015965 1:1026.0 2:265.0 3:1701.0 4:2.5 5:7.0 6:13.0 7:-86.0 
0.10041515102041856 0.16667938226644777 1:145.0 2:53.0 3:174.0 4:2.5999999046325684 5:15.0 6:15.0 7:-72.0 
0.18277883997692218 0.301180189412376 1:3073.0 2:808.0 3:1468.0 4:2.5 5:15.0 6:12.0 7:-64.0 
0.22361938887890365 0.36788149213233334 1:1100.0 2:468.0 3:111.0 4:2.5999999046325684 5:15.0 6:15.0 7:-58.0 
0.22328838079323654 0.36831634792561657 1:3111.0 2:300.0 3:45.0 4:2.5999999046325684 5:15.0 6:15.0 7:-62.0 
0.2236137795500126 0.3683135317250989 1:3254.0 2:302.0 3:45.0 4:2.5999999046325684 5:15.0 6:15.0 7:-62.0 
0.054980549451148525 0.11071250620748933 2:26.0 3:35.0 4:2.5999999046325684 5:12.0 6:15.0 7:-65.0 
0.22270879969610485 0.4013730483925075 2:27.0 3:156.0 4:2.5999999046325684 5:15.0 6:10.0 7:-88.0 
0.15578839296498798 0.25607084377513956 1:1508.0 2:359.0 3:477.0 4:2.5 5:15.0 6:15.0 7:-73.0 
0.20811375897943024 0.3432190259435531 1:2785.0 2:793.0 3:2595.0 4:2.4000000953674316 5:10.0 6:13.0 7:-72.0 
0.21844281507595364 0.3595464489919009 1:1287.0 2:386.0 3:3228.0 4:2.4000000953674316 5:10.0 6:12.0 7:-82.0 
0.21714076714857122 0.35735497784546716 1:3363.0 2:753.0 3:888.0 4:2.5 5:10.0 6:13.0 7:-57.0 
0.057316742706429974 0.0956970646674758 1:1287.0 2:461.0 3:3839.0 4:2.4000000953674316 5:15.0 6:13.0 7:-82.0 
0.045539317689109855 0.07556983523145248 1:818.0 2:212.0 3:276.0 4:2.5 5:11.0 6:15.0 7:-72.0 
0.21348179420472088 0.3509567657672347 1:69.0 2:693.0 3:2916.0 4:2.299999952316284 5:11.0 6:13.0 7:-64.0 
0.22361004795584422 0.36807143360933675 1:3079.0 2:816.0 3:1524.0 4:2.5 5:15.0 6:13.0 7:-64.0 
0.2233941624969642 0.36769904887215177 1:856.0 2:242.0 3:282.0 4:2.5 5:15.0 6:14.0 7:-71.0 
0.17351618087904866 0.2838163169939482 1:1260.0 2:335.0 3:172.0 4:2.5999999046325684 5:10.0 6:15.0 7:-63.0 
0.05882098371110758 0.10193931243533436 1:318.0 2:310.0 3:1906.0 4:2.5 5:15.0 6:14.0 7:-80.0 
0.22323164747465601 0.3680413152266196 1:2681.0 2:679.0 3:1872.0 4:2.5 5:10.0 6:11.0 7:-72.0 
0.1356993126764973 0.22340716551376302 1:3148.0 2:945.0 3:2149.0 4:2.5 5:14.0 6:15.0 7:-60.0 
0.20149983869670784 0.33152756466402594 1:158.0 2:232.0 3:950.0 4:2.5999999046325684 5:11.0 6:14.0 7:-78.0 
0.13790795594150151 0.22900561282346074 2:204.0 3:478.0 4:2.5 5:15.0 6:15.0 7:-65.0 
0.19333419153609777 0.31804501641497435 1:2772.0 2:577.0 3:275.0 4:2.5999999046325684 5:7.0 6:15.0 7:-58.0 
0.14743491416285814 0.2424785334886386 1:1287.0 2:317.0 3:2284.0 4:2.5 5:15.0 6:12.0 7:-91.0 
0.1130383890135579 0.18539675887762236 1:2747.0 2:721.0 3:1063.0 4:2.5999999046325684 5:15.0 6:14.0 7:-65.0 
0.17159121626324658 0.2820228683263679 1:2735.0 2:667.0 3:806.0 4:2.5999999046325684 5:15.0 6:15.0 7:-67.0 
0.22354651563789119 0.3683561079619677 1:703.0 2:184.0 3:262.0 4:2.5 5:15.0 6:15.0 7:-72.0 
0.05937437116537243 0.09766768481221519 1:517.0 2:448.0 3:1680.0 4:2.4000000953674316 5:10.0 6:12.0 7:-64.0 
0.14909014465057438 0.24508484080616325 1:1026.0 2:165.0 3:758.0 4:2.5 5:14.0 6:14.0 7:-85.0 
0.12025140385166376 0.19846500592345864 1:1815.0 2:274.0 3:264.0 4:2.5999999046325684 5:15.0 6:14.0 7:-56.0 
0.10003154856292458 0.1648285114462922 1:1887.0 2:483.0 3:820.0 4:2.5 5:15.0 6:14.0 7:-71.0 
0.204110652867529 0.33621253962673064 1:86.0 2:226.0 3:63.0 4:2.5999999046325684 5:11.0 6:15.0 7:-55.0 
0.08621991597353176 0.14320296525112924 1:1287.0 2:478.0 3:3953.0 4:2.4000000953674316 5:15.0 6:13.0 7:-82.0 
0.14494750536928455 0.23724958989808392 1:216.0 2:208.0 3:494.0 4:2.5 5:15.0 6:15.0 7:-62.0 
0.14825324180960944 0.24349823482127178 1:3469.0 2:970.0 3:1768.0 4:2.5 5:15.0 6:13.0 7:-57.0 
0.11394679497935328 0.18902413627021689 1:587.0 2:717.0 3:2733.0 4:2.5999999046325684 5:15.0 6:14.0 7:-68.0 
0.11747640910754983 0.19471578000982517 1:2733.0 2:494.0 3:367.0 4:2.5999999046325684 5:15.0 6:15.0 7:-66.0 
0.061129028674635336 0.10633527902939705 1:30.0 2:106.0 3:387.0 4:2.5999999046325684 5:15.0 6:15.0 7:-66.0 
0.19315737199868604 0.3178585953954897 1:1287.0 2:611.0 3:4949.0 4:2.4000000953674316 5:10.0 6:12.0 7:-83.0 
0.06221526547747598 0.10097381149437902 1:216.0 2:155.0 3:329.0 4:2.4000000953674316 5:12.0 6:14.0 7:-64.0 
0.11961882001015625 0.19752920833238172 1:2733.0 2:448.0 3:222.0 4:2.5999999046325684 5:15.0 6:14.0 7:-71.0 
0.14837707910613207 0.2437071431467706 1:158.0 2:295.0 3:1123.0 4:2.5999999046325684 5:15.0 6:15.0 7:-68.0 
0.17003906219439474 0.2799759071411332 1:167.0 2:865.0 3:1771.0 4:2.5999999046325684 5:11.0 6:13.0 7:-69.0 
0.11514117142329451 0.19065523753546404 1:1026.0 2:160.0 3:671.0 4:2.5 5:12.0 6:14.0 7:-88.0 
0.18615052260702042 0.30625405467193206 1:222.0 2:1196.0 3:3420.0 4:2.5999999046325684 5:10.0 6:14.0 7:-76.0 
0.20328162853496412 0.334724829340208 1:1287.0 2:711.0 3:6086.0 4:2.4000000953674316 5:11.0 6:13.0 7:-86.0 
0.22362342148035652 0.3681884843723416 1:2117.0 2:329.0 3:400.0 4:2.5999999046325684 5:15.0 6:14.0 7:-56.0 
0.17742994179498417 0.29218596722747026 1:1287.0 2:637.0 3:5112.0 4:2.4000000953674316 5:7.0 6:13.0 7:-88.0 
0.17335421884933577 0.2858582759458913 1:1026.0 2:267.0 3:1723.0 4:2.5 5:15.0 6:14.0 7:-88.0 
0.18749178843871767 0.3085644698051669 1:3469.0 2:968.0 3:1765.0 4:2.5 5:15.0 6:13.0 7:-59.0 
0.22223334042188927 0.3659358069145299 1:185.0 2:982.0 3:2179.0 4:2.5999999046325684 5:15.0 6:12.0 7:-68.0 
0.09361186116824857 0.15379862622885287 1:3127.0 2:933.0 3:2071.0 4:2.5 5:11.0 6:13.0 7:-62.0 
0.044013137633271374 0.07319808079640636 1:818.0 2:197.0 3:271.0 4:2.5 5:15.0 6:15.0 7:-71.0 
0.21539340210187924 0.35531846240646475 1:99.0 2:313.0 3:960.0 4:2.5999999046325684 5:15.0 6:14.0 7:-68.0 
0.1874248814118888 0.3085457582625671 1:12.0 2:412.0 3:1494.0 4:2.4000000953674316 5:10.0 6:12.0 7:-65.0 
0.13500366234089548 0.22227252944146 1:30.0 2:106.0 3:385.0 4:2.5999999046325684 5:11.0 6:15.0 7:-66.0 
0.22140233277685453 0.36485299158429296 1:1287.0 2:318.0 3:2317.0 4:2.5 5:7.0 6:12.0 7:-91.0 
0.6481369518249909 0.367966121306666 1:1815.0 2:267.0 3:257.0 4:2.5999999046325684 5:5.0 6:14.0 7:-56.0 
0.11900977444877162 0.19671893981543823 1:3469.0 2:932.0 3:1554.0 4:2.5 5:15.0 6:13.0 7:-59.0 
0.14700400945596154 0.2411765699476251 1:318.0 2:366.0 3:2064.0 4:2.5 5:7.0 6:14.0 7:-80.0 
0.19112887376473192 0.3143604907760766 1:1026.0 2:94.0 3:354.0 4:2.5999999046325684 5:12.0 6:11.0 7:-85.0 
0.22359653224751624 0.3678453947787606 1:222.0 2:1071.0 3:2704.0 4:2.5999999046325684 5:15.0 6:11.0 7:-77.0 
0.07985491003754093 0.13141007057309856 1:158.0 2:321.0 3:1155.0 4:2.5999999046325684 5:11.0 6:15.0 7:-68.0 
0.08707316086995144 0.1444482529101167 1:2772.0 2:569.0 3:259.0 4:2.5999999046325684 5:15.0 6:15.0 7:-58.0 
0.22362117592526076 0.3682207191526876 1:1011.0 2:267.0 3:71.0 4:2.5999999046325684 5:15.0 6:14.0 7:-59.0 
0.22360766513373193 0.36835537731726464 1:1404.0 2:318.0 3:371.0 4:2.5 5:15.0 6:15.0 7:-68.0 
0.001693065535733911 0.0 1:98.0 2:270.0 3:797.0 4:2.5999999046325684 5:15.0 6:15.0 7:-68.0 
0.11558251409901149 0.19110024509136211 1:318.0 2:413.0 3:2176.0 4:2.5 5:10.0 6:15.0 7:-79.0 
0.0 0.06712049612060558 1:1400.0 2:168.0 3:54.0 4:2.299999952316284 5:15.0 6:15.0 7:-64.0 
0.15097351883508925 0.2484940717213026 1:2735.0 2:597.0 3:575.0 4:2.5999999046325684 5:10.0 6:13.0 7:-80.0 
0.03240655581821597 0.05395345648551386 1:2772.0 2:571.0 3:262.0 4:2.5999999046325684 5:15.0 6:14.0 7:-58.0 
0.07888490616808586 0.13106201349816213 1:1404.0 2:328.0 3:64.0 4:2.299999952316284 5:15.0 6:14.0 7:-66.0 
0.16186521392023656 0.2661983870630066 1:79.0 2:29.0 3:42.0 4:2.5 5:11.0 6:15.0 7:-66.0 
0.18726461755318896 0.31020444128141783 1:1287.0 2:480.0 3:3965.0 4:2.4000000953674316 5:11.0 6:14.0 7:-82.0 
0.07010579529581931 0.1119615403970629 1:1026.0 2:154.0 3:609.0 4:2.5 5:15.0 6:13.0 7:-88.0 
0.13236447223859382 0.21957664969734123 1:427.0 2:547.0 3:2130.0 4:2.5999999046325684 5:15.0 6:13.0 7:-67.0 
0.048582962159227416 0.07816306002039794 1:172.0 2:94.0 3:199.0 4:2.5 5:15.0 6:14.0 7:-65.0 
0.19953605948177788 0.3282341859731452 1:167.0 2:882.0 3:1812.0 4:2.5999999046325684 5:11.0 6:14.0 7:-69.0 
0.06412396291572092 0.10525910293521362 1:3073.0 2:797.0 3:1394.0 4:2.5 5:15.0 6:14.0 7:-62.0 
0.21890566993168303 0.36113420573521077 1:1026.0 2:236.0 3:1470.0 4:2.5 5:15.0 6:13.0 7:-91.0 
0.2212232336290318 0.3640115911717695 1:1287.0 2:731.0 3:6312.0 4:2.4000000953674316 5:6.0 6:13.0 7:-85.0 
0.19333301059296398 0.31813734925352816 1:2153.0 2:532.0 3:1064.0 4:2.5 5:15.0 6:15.0 7:-72.0 
0.1377094393823617 0.2266715215001754 2:322.0 3:963.0 4:2.5 5:15.0 6:15.0 7:-65.0 
0.2186585155728314 0.3590540796723143 1:1287.0 2:727.0 3:6281.0 4:2.4000000953674316 5:12.0 6:13.0 7:-86.0 
0.17535269054761732 0.28790658463416147 1:2153.0 2:527.0 3:1038.0 4:2.5 5:7.0 6:15.0 7:-73.0 
0.22266474911409842 0.36724437363674833 1:6.0 2:28.0 3:35.0 4:2.5999999046325684 5:15.0 6:14.0 7:-66.0 
0.10291030766318447 0.1695573761220654 1:1287.0 2:421.0 3:3555.0 4:2.4000000953674316 5:11.0 6:14.0 7:-82.0 
0.18522848004957895 0.3039474269069237 1:1287.0 2:413.0 3:3445.0 4:2.4000000953674316 5:11.0 6:13.0 7:-81.0 
0.09988171061668846 0.16365034800833458 1:2735.0 2:694.0 3:899.0 4:2.5999999046325684 5:11.0 6:14.0 7:-65.0 
0.1830505835472278 0.3012025319354809 1:537.0 2:472.0 3:1752.0 4:2.4000000953674316 5:9.0 6:13.0 7:-65.0 
0.21402091504567367 0.35275360659300303 1:1287.0 2:686.0 3:5866.0 4:2.4000000953674316 5:15.0 6:13.0 7:-85.0 
0.1435146929948911 0.23598691266154306 1:1869.0 2:479.0 3:786.0 4:2.5 5:15.0 6:15.0 7:-70.0 
0.1625330086188952 0.26851112670638566 1:3174.0 2:1058.0 3:2615.0 4:2.4000000953674316 5:11.0 6:13.0 7:-64.0 
0.07964833007494715 0.13106686204613074 1:2733.0 2:482.0 3:317.0 4:2.5999999046325684 5:15.0 6:14.0 7:-72.0 
0.22156071114550685 0.36454537981135293 1:1287.0 2:437.0 3:3669.0 4:2.4000000953674316 5:10.0 6:13.0 7:-82.0 
0.18749852197907113 0.30818136106897165 1:587.0 2:726.0 3:2773.0 4:2.5999999046325684 5:9.0 6:14.0 7:-68.0 
0.18888395846581293 0.310720396802931 1:2917.0 2:934.0 3:3340.0 4:2.4000000953674316 5:11.0 6:13.0 7:-72.0 
0.2099357850873445 0.3449043428843834 1:1287.0 2:358.0 3:2960.0 4:2.4000000953674316 5:11.0 6:12.0 7:-91.0 
0.14415394381582558 0.23694926439524172 1:2841.0 2:827.0 3:2800.0 4:2.4000000953674316 5:15.0 6:12.0 7:-70.0 
0.1395376698144082 0.23048398936339282 1:1287.0 2:299.0 3:2095.0 4:2.5 5:15.0 6:13.0 7:-87.0 
0.12017296165703609 0.1973266466340906 1:2530.0 2:398.0 3:587.0 4:2.5999999046325684 5:9.0 6:15.0 7:-55.0 
0.22313735448653504 0.36758863845498213 1:3311.0 2:691.0 3:636.0 4:2.5999999046325684 5:13.0 6:13.0 7:-58.0 
0.08458762655549554 0.139256369884313 1:318.0 2:347.0 3:2012.0 4:2.5 5:11.0 6:14.0 7:-80.0 
0.21976201327135725 0.3617768391335124 1:2785.0 2:775.0 3:2495.0 4:2.4000000953674316 5:15.0 6:13.0 7:-72.0 
0.21469254185564413 0.35312175049505223 1:31.0 2:500.0 3:1956.0 4:2.4000000953674316 5:7.0 6:13.0 7:-64.0 
0.1970502411146678 0.324195922411846 1:586.0 2:704.0 3:2695.0 4:2.5999999046325684 5:10.0 6:13.0 7:-68.0 
0.22357206091874904 0.3683414047269329 1:3369.0 2:303.0 3:45.0 4:2.5999999046325684 5:15.0 6:15.0 7:-63.0 
0.02546059648276892 0.04229369506436342 1:216.0 2:153.0 3:318.0 4:2.5 5:15.0 6:14.0 7:-64.0 
0.18535137876723656 0.3046864093919987 1:2734.0 2:547.0 3:470.0 4:2.5999999046325684 5:10.0 6:14.0 7:-66.0 
0.1780425604871746 0.29249233661516527 1:222.0 2:1078.0 3:2747.0 4:2.5999999046325684 5:15.0 6:11.0 7:-78.0 
0.15510924041123672 0.25578653064426754 1:220.0 2:1033.0 3:2457.0 4:2.5999999046325684 5:11.0 6:11.0 7:-65.0 
0.20147854331307963 0.33194925372454986 1:1287.0 2:464.0 3:3853.0 4:2.4000000953674316 5:15.0 6:14.0 7:-82.0 
0.06446978959499579 0.10793452421169948 1:1508.0 2:343.0 3:435.0 4:2.5 5:15.0 6:15.0 7:-72.0 
0.1520834226725292 0.24963036122378598 1:12.0 2:457.0 3:1712.0 4:2.5 5:11.0 6:13.0 7:-63.0 
0.15873282161307778 0.26134752677158 1:1287.0 2:331.0 3:2583.0 4:2.4000000953674316 5:11.0 6:14.0 7:-90.0 
0.11053853279321678 0.18265120966769233 1:3073.0 2:788.0 3:1342.0 4:2.5 5:11.0 6:14.0 7:-64.0 
0.22295350778500195 0.36729315896212683 1:3164.0 2:1024.0 3:2479.0 4:2.5 5:13.0 6:13.0 7:-60.0 
0.22368321725786078 0.36787299381194066 1:2959.0 2:293.0 3:45.0 4:2.5999999046325684 5:15.0 6:15.0 7:-63.0 
0.2235877151730764 0.36784192450650255 1:3164.0 2:1033.0 3:2525.0 4:2.5 5:5.0 6:11.0 7:-64.0 
0.1169253173802644 0.19253058400102357 1:216.0 2:145.0 3:304.0 4:2.5 5:15.0 6:14.0 7:-66.0 
0.22377038339422162 0.36792738151918114 1:502.0 2:173.0 3:249.0 4:2.5 5:15.0 6:14.0 7:-71.0 
0.08220651600246695 0.1346284765942161 1:1864.0 2:284.0 3:295.0 4:2.5999999046325684 5:15.0 6:15.0 7:-56.0 
0.22343885806668362 0.3677019433620911 1:3421.0 2:824.0 3:1138.0 4:2.5 5:5.0 6:15.0 7:-57.0 
0.19492621592780407 0.32085044387640443 1:63.0 2:153.0 3:565.0 4:2.5999999046325684 5:9.0 6:14.0 7:-67.0 
0.15610432391445928 0.25726765730900103 2:34.0 3:199.0 4:2.5999999046325684 5:7.0 6:9.0 7:-88.0 
0.10317861419539158 0.17068756572431637 1:1026.0 2:278.0 3:1805.0 4:2.5 5:15.0 6:14.0 7:-88.0 
0.16904460369839824 0.2779764247240401 1:30.0 2:73.0 3:256.0 4:2.5999999046325684 5:7.0 6:15.0 7:-70.0 
0.1743180086837724 0.2864043284368142 1:2733.0 2:503.0 3:390.0 4:2.5999999046325684 5:15.0 6:15.0 7:-66.0 
0.21705868704331327 0.3575623987167197 1:1026.0 2:267.0 3:1736.0 4:2.5 5:10.0 6:14.0 7:-88.0 
0.08550172769141005 0.1386377303075452 1:1287.0 2:355.0 3:2897.0 4:2.4000000953674316 5:15.0 6:13.0 7:-88.0 
0.14091695278594596 0.23219580845279042 1:928.0 2:67.0 3:214.0 4:2.5999999046325684 5:7.0 6:13.0 7:-82.0 
0.03277313665943663 0.05362253579367915 1:2733.0 2:460.0 3:266.0 4:2.5999999046325684 5:15.0 6:14.0 7:-71.0 
0.10568014876387638 0.1745040394848475 1:3073.0 2:797.0 3:1390.0 4:2.5 5:14.0 6:15.0 7:-62.0 
0.2236837076867197 0.36788184015011477 1:1189.0 2:473.0 3:112.0 4:2.5999999046325684 5:15.0 6:15.0 7:-58.0 
0.04998693209159588 0.08489761995179715 1:1056.0 2:348.0 3:109.0 4:2.5999999046325684 5:15.0 6:15.0 7:-56.0 
0.1901099423823518 0.31260728625422607 1:31.0 2:481.0 3:1827.0 4:2.4000000953674316 5:12.0 6:14.0 7:-64.0 
0.14478197528208953 0.23691812881960972 1:1026.0 2:234.0 3:1458.0 4:2.5 5:15.0 6:13.0 7:-91.0 
0.09898327489425587 0.1574271767126346 1:167.0 2:855.0 3:1726.0 4:2.5999999046325684 5:15.0 6:15.0 7:-69.0 
0.1691929735894912 0.2793792905522171 1:427.0 2:548.0 3:2142.0 4:2.5999999046325684 5:11.0 6:14.0 7:-67.0 
0.223567670426424 0.36828915290015785 1:404.0 2:236.0 3:71.0 4:2.5999999046325684 5:15.0 6:15.0 7:-58.0 
0.22345837576782235 0.3682939438263031 1:3452.0 2:312.0 3:45.0 4:2.5 5:12.0 6:15.0 7:-63.0 
0.20471734362291105 0.3368799914824044 1:3073.0 2:810.0 3:1482.0 4:2.5 5:13.0 6:14.0 7:-62.0 
0.2225987455111093 0.3667447138799764 1:30.0 2:47.0 3:185.0 4:2.5999999046325684 5:5.0 6:15.0 7:-68.0 
0.16020561376964937 0.26458617368058857 1:158.0 2:347.0 3:1240.0 4:2.5999999046325684 5:10.0 6:15.0 7:-68.0 
0.17962087479842304 0.29571058632360603 1:158.0 2:188.0 3:717.0 4:2.5999999046325684 5:10.0 6:14.0 7:-78.0 
0.053905910037204824 0.0824142869271974 1:1400.0 2:140.0 3:53.0 4:2.5 5:15.0 6:14.0 7:-64.0 
0.16010087935727313 0.2629848997767121 1:318.0 2:301.0 3:1862.0 4:2.5 5:15.0 6:13.0 7:-80.0 
0.14586690861401555 0.2387238345527905 1:3573.0 2:367.0 3:131.0 4:2.5999999046325684 5:11.0 6:15.0 7:-66.0 
0.09220496434220112 0.15802937847887455 1:1420.0 2:378.0 3:154.0 4:2.299999952316284 5:15.0 6:15.0 7:-63.0 
0.21789960353712012 0.35905976260826605 1:172.0 2:104.0 3:217.0 4:2.4000000953674316 5:10.0 6:15.0 7:-65.0 
0.22175226275935078 0.3656985044208158 1:3455.0 2:915.0 3:1452.0 4:2.5 5:6.0 6:15.0 7:-59.0 
0.1863781031219675 0.30727397607815526 1:1287.0 2:774.0 3:6727.0 4:2.4000000953674316 5:15.0 6:12.0 7:-86.0 
0.22336874869992068 0.36828082273698837 1:732.0 2:46.0 3:150.0 4:2.5999999046325684 5:15.0 6:13.0 7:-82.0 
0.12635134906510131 0.20847226372547362 1:1624.0 2:431.0 3:636.0 4:2.5 5:9.0 6:15.0 7:-70.0 
0.1759262285711755 0.289732299220801 1:1056.0 2:297.0 3:96.0 4:2.5999999046325684 5:15.0 6:15.0 7:-55.0 
0.001354046706483203 0.009371509908845832 1:216.0 2:183.0 3:413.0 4:2.5 5:15.0 6:15.0 7:-64.0 
0.22362245412809328 0.36820994164459153 1:2542.0 2:406.0 3:604.0 4:2.5999999046325684 5:15.0 6:13.0 7:-56.0 
0.0660269312662268 0.10629723688292847 1:1287.0 2:413.0 3:3456.0 4:2.4000000953674316 5:10.0 6:13.0 7:-82.0 
0.22336976333037 0.36787247742318413 1:3234.0 2:638.0 3:452.0 4:2.5999999046325684 5:15.0 6:15.0 7:-56.0 
0.15885320580360798 0.26123943084236056 1:1287.0 2:537.0 3:4310.0 4:2.4000000953674316 5:15.0 6:13.0 7:-82.0 
0.22287746705115502 0.36701423639972935 1:1287.0 2:315.0 3:2242.0 4:2.5 5:7.0 6:10.0 7:-91.0 
0.03254330847336364 0.05380488600122835 1:318.0 2:375.0 3:2083.0 4:2.5 5:15.0 6:13.0 7:-80.0 
0.10354292249468919 0.16920828010776298 1:3455.0 2:915.0 3:1459.0 4:2.5 5:15.0 6:14.0 7:-57.0 
0.1413593864526505 0.23324347292723335 1:257.0 2:309.0 3:846.0 4:2.4000000953674316 5:11.0 6:14.0 7:-64.0 
0.2113515463328987 0.3478493229919119 1:1287.0 2:347.0 3:2796.0 4:2.4000000953674316 5:6.0 6:12.0 7:-91.0 
0.22333146192580905 0.36789364787411877 1:3162.0 2:997.0 3:2405.0 4:2.5 5:5.0 6:13.0 7:-63.0 
0.14532331228040965 0.2379818332671183 1:537.0 2:485.0 3:1800.0 4:2.4000000953674316 5:10.0 6:12.0 7:-64.0 
0.14149233134462466 0.2330631362147784 1:3279.0 2:1141.0 3:2865.0 4:2.5 5:10.0 6:14.0 7:-64.0 
0.20701331767784698 0.34053746866976065 1:1287.0 2:531.0 3:4293.0 4:2.4000000953674316 5:15.0 6:14.0 7:-82.0 
0.1278795814829557 0.2109856980557346 1:166.0 2:703.0 3:1385.0 4:2.5999999046325684 5:13.0 6:15.0 7:-63.0 
0.16767677408551718 0.2753091749481563 1:318.0 2:281.0 3:1811.0 4:2.5 5:11.0 6:14.0 7:-80.0 
0.177825041300192 0.2922465162570299 1:30.0 2:68.0 3:243.0 4:2.5999999046325684 5:15.0 6:15.0 7:-70.0 
0.12371322945689689 0.20269033727888913 1:1026.0 2:158.0 3:635.0 4:2.5 5:15.0 6:14.0 7:-88.0 
0.22366078736400252 0.3675780028489065 1:2792.0 2:515.0 3:800.0 4:2.5999999046325684 5:7.0 6:11.0 7:-56.0 
0.2233334649508233 0.3678650238294725 1:1287.0 2:636.0 3:5093.0 4:2.4000000953674316 5:3.0 6:9.0 7:-89.0 
0.1996295694546119 0.32825773560169047 1:1287.0 2:458.0 3:3813.0 4:2.4000000953674316 5:15.0 6:13.0 7:-82.0 
0.15957603923680158 0.2622612013908221 1:3127.0 2:935.0 3:2086.0 4:2.5 5:11.0 6:13.0 7:-62.0 
0.22324829588597883 0.3679872377907618 1:3103.0 2:885.0 3:1851.0 4:2.5 5:7.0 6:12.0 7:-65.0 
0.1989359602103043 0.3280068179063094 1:2412.0 2:373.0 3:503.0 4:2.5999999046325684 5:10.0 6:13.0 7:-56.0 
0.222267389854142 0.36596176011159504 1:31.0 2:488.0 3:1886.0 4:2.5 5:15.0 6:13.0 7:-64.0 
0.14213032673581627 0.23349057116986954 1:1287.0 2:686.0 3:5877.0 4:2.4000000953674316 5:15.0 6:11.0 7:-84.0 
0.22368681210625846 0.3679923031060573 1:1233.0 2:166.0 3:15.0 4:2.5999999046325684 5:15.0 6:15.0 7:-62.0 
0.11769868668998264 0.19240654097432916 1:1404.0 2:340.0 3:94.0 4:2.299999952316284 5:15.0 6:15.0 7:-66.0 
0.14454935028657814 0.23792720223057234 1:1400.0 2:209.0 3:54.0 4:2.4000000953674316 5:11.0 6:15.0 7:-63.0 
0.20933841810326803 0.34487818749932153 1:2880.0 2:877.0 3:3058.0 4:2.4000000953674316 5:15.0 6:13.0 7:-72.0 
0.04292416075576647 0.0681345326577069 1:3297.0 2:675.0 3:554.0 4:2.5 5:15.0 6:13.0 7:-58.0 
0.14582005429944228 0.23969582651462196 1:237.0 2:1226.0 3:3607.0 4:2.5999999046325684 5:15.0 6:13.0 7:-76.0 
0.22360429211505378 0.3678689939871405 1:3548.0 2:353.0 3:106.0 4:2.5999999046325684 5:15.0 6:15.0 7:-66.0 
0.11292192527761458 0.18573672911986994 1:3073.0 2:792.0 3:1370.0 4:2.5 5:13.0 6:15.0 7:-62.0 
0.10206919758349416 0.16836356481698536 1:1287.0 2:445.0 3:3729.0 4:2.4000000953674316 5:10.0 6:14.0 7:-82.0 
0.22085633258109916 0.36315092854224446 1:3079.0 2:832.0 3:1608.0 4:2.5 5:10.0 6:13.0 7:-65.0 
0.2233282436603352 0.3679400875752119 1:729.0 2:255.0 3:71.0 4:2.5999999046325684 5:15.0 6:14.0 7:-58.0 
0.1858595072329799 0.3061010960940867 1:96.0 2:189.0 3:629.0 4:2.5999999046325684 5:15.0 6:15.0 7:-68.0 
0.17973428170641656 1.0 1:148.0 2:626.0 3:1178.0 4:2.5999999046325684 5:15.0 6:14.0 7:-63.0 
0.1730440763201075 0.2846357883855012 1:1287.0 2:708.0 3:6063.0 4:2.4000000953674316 5:11.0 6:12.0 7:-85.0 
0.053211538752456884 0.08660307658332507 2:169.0 3:355.0 4:2.5999999046325684 5:15.0 6:15.0 7:-64.0 
0.220518220268233 0.3633042168463654 1:3258.0 2:647.0 3:480.0 4:2.5999999046325684 5:6.0 6:15.0 7:-56.0 
0.19039082837040444 0.3132936053282126 1:114.0 2:333.0 3:1068.0 4:2.5999999046325684 5:10.0 6:13.0 7:-68.0 
0.22337888069090855 0.36755572327771013 1:282.0 2:323.0 3:945.0 4:2.4000000953674316 5:13.0 6:13.0 7:-64.0 
0.16616083120743205 0.27420911141671434 1:167.0 2:802.0 3:1623.0 4:2.5999999046325684 5:11.0 6:14.0 7:-70.0 
0.18610476305851503 0.3064770117999665 1:1508.0 2:343.0 3:433.0 4:2.5 5:10.0 6:15.0 7:-73.0 
0.06069097282961129 0.09906751347312151 1:1026.0 2:199.0 3:1047.0 4:2.5 5:13.0 6:14.0 7:-88.0 
0.18451807808491755 0.303396415716921 1:1026.0 2:237.0 3:1476.0 4:2.5 5:10.0 6:14.0 7:-91.0 
0.19557311877301156 0.3222877166526864 1:1508.0 2:342.0 3:430.0 4:2.5 5:15.0 6:15.0 7:-72.0 
0.1981390245960301 0.32606598550325255 2:258.0 3:667.0 4:2.5 5:15.0 6:14.0 7:-65.0 
0.1999242084697737 0.3298828661603801 1:1287.0 2:758.0 3:6529.0 4:2.4000000953674316 5:15.0 6:12.0 7:-85.0 
0.22242334889156257 0.3659363701284944 1:220.0 2:999.0 3:2306.0 4:2.5999999046325684 5:9.0 6:14.0 7:-68.0 
0.18242152646122917 0.30010522620509206 2:165.0 3:333.0 4:2.5999999046325684 5:15.0 6:14.0 7:-64.0 
0.1086975100245014 0.18026910653948489 1:2747.0 2:549.0 3:224.0 4:2.5999999046325684 5:15.0 6:14.0 7:-59.0 
0.11858532971591917 0.19543388338790182 1:1026.0 2:122.0 3:413.0 4:2.5 5:11.0 6:13.0 7:-86.0 
0.17062573908536321 0.2801325513430731 1:167.0 2:776.0 3:1568.0 4:2.5999999046325684 5:15.0 6:15.0 7:-70.0 
0.014665180987374682 0.02383076740437806 1:1400.0 2:222.0 3:55.0 4:2.4000000953674316 5:11.0 6:15.0 7:-64.0 
0.21549945621336847 0.3549713342692705 1:2607.0 2:652.0 3:1631.0 4:2.5 5:15.0 6:13.0 7:-73.0 
0.17923265907667416 0.2952955881057254 1:2770.0 2:497.0 3:770.0 4:2.5999999046325684 5:15.0 6:15.0 7:-56.0 
0.07703205491186718 0.12743806812316805 1:158.0 2:259.0 3:1104.0 4:2.5999999046325684 5:15.0 6:14.0 7:-61.0 
0.2188598318545641 0.3605598360331076 1:418.0 2:402.0 3:1380.0 4:2.4000000953674316 5:10.0 6:13.0 7:-64.0 
0.22335330753891774 0.36810704457859367 1:1287.0 2:770.0 3:6653.0 4:2.4000000953674316 5:6.0 6:9.0 7:-85.0 
0.19813857046651495 0.32599339217419093 1:98.0 2:257.0 3:751.0 4:2.5999999046325684 5:11.0 6:14.0 7:-68.0 
0.10137755219682505 0.1676805871654555 1:1420.0 2:381.0 3:155.0 4:2.299999952316284 5:15.0 6:15.0 7:-62.0 
0.06620594805936503 0.10344105516901535 1:1400.0 2:245.0 3:56.0 4:2.4000000953674316 5:15.0 6:14.0 7:-64.0 
0.22354553788618392 0.36829703338909214 1:1190.0 2:67.0 3:52.0 4:2.5 5:15.0 6:15.0 7:-66.0 
0.08301787719595452 0.13634565858421038 1:1026.0 2:284.0 3:1864.0 4:2.5 5:15.0 6:13.0 7:-88.0 
0.223463901989783 0.36793999301592356 1:2638.0 2:666.0 3:1777.0 4:2.5 5:15.0 6:13.0 7:-72.0 
0.12078567652357908 0.1975017681623282 1:127.0 2:343.0 3:1140.0 4:2.5999999046325684 5:15.0 6:14.0 7:-68.0 
0.21614760991001924 0.3559921303219872 1:3469.0 2:972.0 3:1776.0 4:2.5 5:7.0 6:13.0 7:-57.0 
0.0534060756517379 0.08717559075565906 1:2772.0 2:606.0 3:340.0 4:2.5999999046325684 5:12.0 6:15.0 7:-58.0 
0.1274683253695332 0.21067905258417433 1:1287.0 2:751.0 3:6450.0 4:2.4000000953674316 5:15.0 6:12.0 7:-87.0 
0.11531600279909834 0.18908102684686975 1:172.0 2:77.0 3:143.0 4:2.5 5:12.0 6:15.0 7:-65.0 
0.12068838144252242 0.19769169549535395 1:2735.0 2:599.0 3:595.0 4:2.5999999046325684 5:15.0 6:15.0 7:-62.0 
0.10379654922857134 0.17161375709441418 2:28.0 3:65.0 4:2.5 5:12.0 6:14.0 7:-75.0 
0.20623608561909085 0.3394942491960184 1:607.0 2:781.0 3:3064.0 4:2.5999999046325684 5:11.0 6:13.0 7:-68.0 
0.1602354264473052 0.26400467526671656 1:167.0 2:882.0 3:1813.0 4:2.5999999046325684 5:7.0 6:14.0 7:-69.0 
0.13008910767619775 0.21488261099691894 1:3455.0 2:915.0 3:1458.0 4:2.5 5:15.0 6:14.0 7:-57.0 
0.07021123059682831 0.11679984436016978 1:2726.0 2:452.0 3:696.0 4:2.5999999046325684 5:15.0 6:13.0 7:-56.0 
0.2010631766665965 0.3314174614937435 1:1287.0 2:323.0 3:2407.0 4:2.5 5:11.0 6:12.0 7:-90.0 
0.09965077890004627 0.16611039174622305 1:818.0 2:200.0 3:273.0 4:2.5 5:15.0 6:15.0 7:-71.0 
0.09706940233160737 0.15935744898508777 1:1026.0 2:246.0 3:1563.0 4:2.5 5:15.0 6:13.0 7:-91.0 
0.2224345392671226 0.36688306240115365 1:185.0 2:952.0 3:2028.0 4:2.5999999046325684 5:15.0 6:11.0 7:-68.0 
0.22355784222194253 0.3678693761057843 1:2299.0 2:518.0 3:168.0 4:2.5999999046325684 5:15.0 6:15.0 7:-59.0 
0.22362065678854703 0.3683582109774992 1:2445.0 2:520.0 3:177.0 4:2.5999999046325684 5:15.0 6:15.0 7:-59.0 
0.18875201545763182 0.3103144636711097 1:1287.0 2:461.0 3:3828.0 4:2.4000000953674316 5:15.0 6:14.0 7:-82.0 
0.2103923941723706 0.3470684978664864 1:3104.0 2:909.0 3:1961.0 4:2.5 5:7.0 6:11.0 7:-60.0 
0.05986289385759191 0.10096903558140541 1:3285.0 2:1193.0 3:3042.0 4:2.4000000953674316 5:11.0 6:13.0 7:-64.0 
0.10593358271804662 0.17335926275174143 1:3527.0 2:350.0 3:104.0 4:2.299999952316284 5:15.0 6:15.0 7:-63.0 
0.03125391491823587 0.0507709705079699 1:2747.0 2:549.0 3:224.0 4:2.5999999046325684 5:15.0 6:15.0 7:-59.0 
0.2099979314163529 0.34582532126848875 1:318.0 2:296.0 3:1853.0 4:2.5 5:11.0 6:12.0 7:-80.0 
0.1685090990070709 0.2775538785726104 1:2733.0 2:424.0 3:135.0 4:2.5999999046325684 5:15.0 6:14.0 7:-74.0 
0.015185403381450423 0.02214879804381666 2:50.0 3:83.0 4:2.5999999046325684 5:15.0 6:15.0 7:-65.0 
0.2188448887254399 0.3600566515334587 1:3073.0 2:788.0 3:1348.0 4:2.5 5:7.0 6:13.0 7:-65.0 
0.05027347421552212 0.11292170208924487 1:82.0 2:171.0 3:62.0 4:2.5999999046325684 5:15.0 6:15.0 7:-54.0 
0.043266937621822564 0.07075025977277435 1:167.0 2:837.0 3:1673.0 4:2.5999999046325684 5:13.0 6:14.0 7:-64.0 
0.14395166315637936 0.23677667586213036 1:96.0 2:229.0 3:694.0 4:2.5999999046325684 5:15.0 6:15.0 7:-68.0 
0.2235676708395401 0.3674209330134824 1:3149.0 2:969.0 3:2235.0 4:2.5 5:5.0 6:12.0 7:-64.0 
0.22335235331413517 0.3678634823825533 1:671.0 2:182.0 3:259.0 4:2.5 5:15.0 6:15.0 7:-72.0 
0.13393717174193903 0.21965000081658548 1:1287.0 2:725.0 3:6253.0 4:2.4000000953674316 5:15.0 6:12.0 7:-86.0 
0.09097823025675435 0.15182295254496864 1:2747.0 2:735.0 3:2245.0 4:2.5 5:15.0 6:13.0 7:-72.0 
0.1974571351560222 0.3245904348071863 1:581.0 2:538.0 3:2131.0 4:2.299999952316284 5:7.0 6:12.0 7:-66.0 
0.20532819186465073 0.33775301147957404 1:1287.0 2:666.0 3:5568.0 4:2.4000000953674316 5:6.0 6:11.0 7:-87.0 
0.19208576824739676 0.31632916807335365 1:2747.0 2:552.0 3:230.0 4:2.5999999046325684 5:11.0 6:14.0 7:-59.0 
0.18558415357780456 0.30618300067113635 1:30.0 2:61.0 3:228.0 4:2.5999999046325684 5:10.0 6:15.0 7:-70.0 
0.22256160494432484 0.3665928909168635 1:147.0 2:349.0 3:1166.0 4:2.5999999046325684 5:15.0 6:13.0 7:-67.0 
0.027626801635033726 0.04600213477020887 1:1026.0 2:283.0 3:1863.0 4:2.5 5:15.0 6:14.0 7:-86.0 
0.13756963302796427 0.22679513817944813 1:1056.0 2:380.0 3:109.0 4:2.5999999046325684 5:15.0 6:15.0 7:-58.0 
0.0948035653258685 0.15700224920684874 2:1.0 3:3.0 4:2.5 5:15.0 6:9.0 7:-84.0 
0.2065863814114443 0.3407734388390519 1:158.0 2:233.0 3:966.0 4:2.5999999046325684 5:10.0 6:14.0 7:-78.0 
0.1032170447096187 0.16701502379393507 1:2045.0 2:303.0 3:332.0 4:2.5999999046325684 5:14.0 6:13.0 7:-58.0 
0.15885305858620097 0.2615915161311907 1:2785.0 2:797.0 3:2615.0 4:2.4000000953674316 5:7.0 6:12.0 7:-72.0 
0.22370513378586365 0.36827672583979365 1:586.0 2:701.0 3:2672.0 4:2.5999999046325684 5:13.0 6:14.0 7:-68.0 
0.22354426896290897 0.3678914888463889 1:404.0 2:168.0 3:243.0 4:2.5 5:15.0 6:14.0 7:-72.0 
0.12307298948121882 0.19986877228463745 1:2747.0 2:711.0 3:985.0 4:2.5999999046325684 5:15.0 6:13.0 7:-65.0 
0.22368623185415115 0.3678919905377059 1:306.0 2:233.0 3:71.0 4:2.5999999046325684 5:15.0 6:15.0 7:-58.0 
0.16808901460559578 0.2755033514522242 1:222.0 2:1135.0 3:3096.0 4:2.5999999046325684 5:13.0 6:13.0 7:-60.0 
0.18828834104963088 0.3099740962052487 1:3175.0 2:1060.0 3:2620.0 4:2.5 5:10.0 6:13.0 7:-64.0 
0.22322622399276254 0.36723247841378576 1:2738.0 2:475.0 3:731.0 4:2.5999999046325684 5:15.0 6:13.0 7:-57.0 
0.19595596475491067 0.3218331359806389 1:2841.0 2:806.0 3:2648.0 4:2.4000000953674316 5:15.0 6:12.0 7:-72.0 
0.22361438268505918 0.3682947037983607 1:17.0 2:28.0 3:37.0 4:2.5999999046325684 5:15.0 6:14.0 7:-66.0 
0.09234991215357438 0.15232731740987163 1:172.0 2:67.0 3:122.0 4:2.5 5:11.0 6:15.0 7:-65.0 
0.18718837327141113 0.3084529698168297 1:511.0 2:577.0 3:2243.0 4:2.5999999046325684 5:15.0 6:14.0 7:-67.0 
0.11234107377733382 0.15567993967304433 2:26.0 3:63.0 4:2.5 5:15.0 6:13.0 7:-75.0 
0.09162126340842147 0.15114490133997868 1:1056.0 2:323.0 3:99.0 4:2.5999999046325684 5:15.0 6:15.0 7:-55.0 
0.033314214349543576 0.054258959902992024 1:2735.0 2:631.0 3:615.0 4:2.5999999046325684 5:15.0 6:15.0 7:-64.0 
0.1444865164801229 0.23693023792789844 1:1344.0 2:291.0 3:332.0 4:2.5 5:10.0 6:15.0 7:-68.0 
0.19582347016295937 0.3215376679003993 1:248.0 2:1292.0 3:3940.0 4:2.5999999046325684 5:15.0 6:11.0 7:-78.0 
0.22359875035207977 0.3679792153240071 1:772.0 2:48.0 3:158.0 4:2.5999999046325684 5:15.0 6:14.0 7:-81.0 
0.2000447082870488 0.3295855662869099 1:12.0 2:441.0 3:1655.0 4:2.5 5:7.0 6:12.0 7:-63.0 
0.048301758273301854 0.021047306236188987 1:82.0 2:172.0 3:62.0 4:2.5999999046325684 5:15.0 6:15.0 7:-54.0 
0.1986346064181963 0.32748861145448654 1:2733.0 2:444.0 3:204.0 4:2.5999999046325684 5:11.0 6:14.0 7:-74.0 
0.052795076656958186 0.0877129240353213 1:166.0 2:712.0 3:1430.0 4:2.5999999046325684 5:15.0 6:14.0 7:-71.0 
0.20742342958835586 0.3421213886779666 1:1026.0 2:278.0 3:1812.0 4:2.5 5:11.0 6:13.0 7:-88.0 
0.0 0.03388332491776283 1:60.0 2:98.0 3:61.0 4:2.5999999046325684 5:15.0 6:15.0 7:-54.0 
0.1039550323817017 0.16391471089224297 2:176.0 3:366.0 4:2.5 5:15.0 6:15.0 7:-64.0 
0.2017313457811537 0.33227745358926397 1:1287.0 2:378.0 3:3165.0 4:2.4000000953674316 5:10.0 6:13.0 7:-86.0 
0.2043479113491541 0.3370849992934129 1:31.0 2:520.0 3:2035.0 4:2.5 5:10.0 6:13.0 7:-64.0 
0.21081536996577765 0.3477890217504913 1:216.0 2:250.0 3:616.0 4:2.4000000953674316 5:15.0 6:14.0 7:-64.0 
0.14835539201221584 0.24430021634668547 1:2880.0 2:893.0 3:3132.0 4:2.4000000953674316 5:10.0 6:11.0 7:-72.0 
0.17386095716208932 0.28587785016299705 1:3079.0 2:851.0 3:1698.0 4:2.5 5:10.0 6:11.0 7:-65.0 
0.0817883774309108 0.133567650734692 1:172.0 2:71.0 3:124.0 4:2.5 5:15.0 6:15.0 7:-66.0 
0.223597089228882 0.36818608162260874 1:3483.0 2:313.0 3:45.0 4:2.5999999046325684 5:15.0 6:15.0 7:-63.0 
0.228165549335742 1.0 1:980.0 2:291.0 3:118.0 4:2.5999999046325684 5:15.0 6:15.0 7:-62.0 
0.2111359162192416 0.3479332416916113 1:30.0 2:85.0 3:333.0 4:2.5999999046325684 5:15.0 6:14.0 7:-68.0 
0.18206063400260047 0.29996209371507765 1:318.0 2:327.0 3:1948.0 4:2.5 5:15.0 6:14.0 7:-80.0 
0.16123524776251907 0.2659538083111297 1:2346.0 2:357.0 3:480.0 4:2.5999999046325684 5:12.0 6:13.0 7:-56.0 
0.18279541288445603 0.2997653455845953 1:222.0 2:1190.0 3:3411.0 4:2.5999999046325684 5:15.0 6:13.0 7:-77.0 
0.15011255533499046 0.24742343845649167 2:104.0 3:185.0 4:2.5999999046325684 5:10.0 6:15.0 7:-66.0 
0.05281394345323953 0.08809647560169978 1:30.0 2:39.0 3:149.0 4:2.5999999046325684 5:15.0 6:15.0 7:-68.0 
0.173282664445227 0.28489441418646966 1:3071.0 2:995.0 3:3706.0 4:2.4000000953674316 5:11.0 6:13.0 7:-71.0 
0.16399188275785148 0.26932067300796864 1:2735.0 2:694.0 3:896.0 4:2.5999999046325684 5:10.0 6:14.0 7:-64.0 
0.2236000167203161 0.3680606892691926 1:2424.0 2:249.0 3:42.0 4:2.5999999046325684 5:15.0 6:15.0 7:-62.0 
0.22353576544539733 0.36787015491260217 1:686.0 2:255.0 3:71.0 4:2.5999999046325684 5:15.0 6:15.0 7:-56.0 
0.20515879249059188 0.3378506379559506 1:31.0 2:591.0 3:2436.0 4:2.4000000953674316 5:10.0 6:13.0 7:-64.0 
0.17866405746912395 0.29311828543333274 1:2747.0 2:721.0 3:1074.0 4:2.5 5:15.0 6:15.0 7:-65.0 
0.22133395411341011 0.36449115138395954 1:166.0 2:710.0 3:1416.0 4:2.5999999046325684 5:10.0 6:14.0 7:-70.0 
0.22334732764502957 0.36832294611221983 1:2365.0 2:365.0 3:485.0 4:2.5999999046325684 5:15.0 6:14.0 7:-56.0 
0.19201073396382753 0.31622372594438014 1:31.0 2:556.0 3:2220.0 4:2.5 5:11.0 6:13.0 7:-64.0 
0.21978239561183238 0.3613609493853824 1:1287.0 2:609.0 3:4921.0 4:2.4000000953674316 5:15.0 6:12.0 7:-83.0 
0.07010697583408362 0.11384746882635476 1:1887.0 2:488.0 3:853.0 4:2.5 5:15.0 6:15.0 7:-72.0 
0.1769504703504033 0.2908507112333813 1:3285.0 2:1163.0 3:2949.0 4:2.4000000953674316 5:12.0 6:15.0 7:-60.0 
0.11996064665975403 0.19765925504821955 1:2272.0 2:570.0 3:1218.0 4:2.5 5:15.0 6:14.0 7:-72.0 
0.22319933070785758 0.3677954434175353 1:318.0 2:353.0 3:2042.0 4:2.5 5:5.0 6:14.0 7:-80.0 
0.15124437816864073 0.24878979537119067 1:1404.0 2:349.0 3:110.0 4:2.299999952316284 5:11.0 6:14.0 7:-66.0 
0.18734829225782013 0.30911279801092867 2:324.0 3:971.0 4:2.5 5:7.0 6:13.0 7:-65.0 
0.18878716571184176 0.3101405797629622 1:1287.0 2:360.0 3:3011.0 4:2.4000000953674316 5:15.0 6:12.0 7:-84.0 
0.11281360542376435 0.1854645075459801 1:1869.0 2:479.0 3:785.0 4:2.5 5:10.0 6:13.0 7:-72.0 
0.14074964259775458 0.23303681483119226 1:1287.0 2:414.0 3:3513.0 4:2.4000000953674316 5:15.0 6:13.0 7:-82.0 
0.09058403281182803 0.1495555256114816 1:1026.0 2:180.0 3:831.0 4:2.5 5:14.0 6:14.0 7:-86.0 
0.1440366028582079 0.23796380019662283 1:1287.0 2:524.0 3:4247.0 4:2.4000000953674316 5:10.0 6:12.0 7:-83.0 
0.21202750971356088 0.3484892376959427 1:448.0 2:417.0 3:1467.0 4:2.299999952316284 5:15.0 6:12.0 7:-66.0 
0.2205291504292769 0.36323375878418496 1:31.0 2:601.0 3:2488.0 4:2.5 5:15.0 6:13.0 7:-64.0 
0.10275408987783768 0.16969948439742127 1:2735.0 2:704.0 3:951.0 4:2.5999999046325684 5:15.0 6:15.0 7:-65.0 
0.21942346961913456 0.36126561423293735 1:2375.0 2:600.0 3:1381.0 4:2.5 5:15.0 6:14.0 7:-72.0 
0.14803269359720905 0.2431552567151642 1:2747.0 2:707.0 3:962.0 4:2.5 5:15.0 6:14.0 7:-65.0 
0.16730433908413314 0.27560209813677095 1:167.0 2:862.0 3:1747.0 4:2.5999999046325684 5:11.0 6:13.0 7:-69.0 
0.12006966249842621 0.20019342981047328 1:2489.0 2:524.0 3:184.0 4:2.5999999046325684 5:15.0 6:15.0 7:-59.0 
